{"learner":{"attributes":{"scikit_learn":"{\"_estimator_type\": \"classifier\"}"},"feature_names":["ema_gap","rsi","macd","cci","stoch","vol_ratio"],"feature_types":["float","float","float","float","float","float"],"gradient_booster":{"model":{"gbtree_model_param":{"num_parallel_tree":"1","num_trees":"200"},"iteration_indptr":[0,1,2,3,4,5,6,7,8,9,10,11,12,13,14,15,16,17,18,19,20,21,22,23,24,25,26,27,28,29,30,31,32,33,34,35,36,37,38,39,40,41,42,43,44,45,46,47,48,49,50,51,52,53,54,55,56,57,58,59,60,61,62,63,64,65,66,67,68,69,70,71,72,73,74,75,76,77,78,79,80,81,82,83,84,85,86,87,88,89,90,91,92,93,94,95,96,97,98,99,100,101,102,103,104,105,106,107,108,109,110,111,112,113,114,115,116,117,118,119,120,121,122,123,124,125,126,127,128,129,130,131,132,133,134,135,136,137,138,139,140,141,142,143,144,145,146,147,148,149,150,151,152,153,154,155,156,157,158,159,160,161,162,163,164,165,166,167,168,169,170,171,172,173,174,175,176,177,178,179,180,181,182,183,184,185,186,187,188,189,190,191,192,193,194,195,196,197,198,199,200],"tree_info":[0,0,0,0,0,0,0,0,0,0,0,0,0,0,0,0,0,0,0,0,0,0,0,0,0,0,0,0,0,0,0,0,0,0,0,0,0,0,0,0,0,0,0,0,0,0,0,0,0,0,0,0,0,0,0,0,0,0,0,0,0,0,0,0,0,0,0,0,0,0,0,0,0,0,0,0,0,0,0,0,0,0,0,0,0,0,0,0,0,0,0,0,0,0,0,0,0,0,0,0,0,0,0,0,0,0,0,0,0,0,0,0,0,0,0,0,0,0,0,0,0,0,0,0,0,0,0,0,0,0,0,0,0,0,0,0,0,0,0,0,0,0,0,0,0,0,0,0,0,0,0,0,0,0,0,0,0,0,0,0,0,0,0,0,0,0,0,0,0,0,0,0,0,0,0,0,0,0,0,0,0,0,0,0,0,0,0,0,0,0,0,0,0,0,0,0,0,0,0,0],"trees":[{"base_weights":[6.705333E-2,1.1570182E-1,-9.1807556E-1,2.6525503E-1,-3.2265726E-2,-1.0981573E0,5.5556303E-1,6.054061E-1,2.069728E-1,2.9479232E-2,-3.678295E-1,-1.7849921E0,-5.064587E-1,1.0225133E0,-5.245907E-1,1.530039E-1,3.0008978E-1,-9.615979E-2,7.812746E-2,-1.273959E-2,1.5266243E-1,3.1369263E-3,-1.8481784E-1,5.2129526E-2,-7.213185E-1,2.579831E-1,-2.6930517E-1,3.6840838E-1,-8.119218E-2],"categories":[],"categories_nodes":[],"categories_segments":[],"categories_sizes":[],"default_left":[0,0,0,0,0,0,0,0,0,0,0,0,0,0,0,0,0,0,0,0,0,0,0,0,0,0,0,0,0],"id":0,"left_children":[1,3,5,7,9,11,13,15,17,19,21,23,25,27,-1,-1,-1,-1,-1,-1,-1,-1,-1,-1,-1,-1,-1,-1,-1],"loss_changes":[8.59577E1,3.780401E1,2.3010956E1,1.6716557E1,1.7817532E1,2.9801811E1,1.2392617E1,4.1514854E0,2.0576145E1,2.5088406E1,1.2555048E1,4.2361076E1,2.3215988E1,2.678052E0,0E0,0E0,0E0,0E0,0E0,0E0,0E0,0E0,0E0,0E0,0E0,0E0,0E0,0E0,0E0],"parents":[2147483647,0,0,1,1,2,2,3,3,4,4,5,5,6,6,7,7,8,8,9,9,10,10,11,11,12,12,13,13],"right_children":[2,4,6,8,10,12,14,16,18,20,22,24,26,28,-1,-1,-1,-1,-1,-1,-1,-1,-1,-1,-1,-1,-1,-1,-1],"split_conditions":[3.1484995E0,-1.3974194E-1,1.0375426E1,-2.8061824E0,1.3088701E2,-9.3597665E-2,7.96953E1,4.6879368E1,3.463343E-1,6.290333E1,2.0303215E-1,4.5827667E1,6.1206898E1,6.455804E1,-5.245907E-1,1.530039E-1,3.0008978E-1,-9.615979E-2,7.812746E-2,-1.273959E-2,1.5266243E-1,3.1369263E-3,-1.8481784E-1,5.2129526E-2,-7.213185E-1,2.579831E-1,-2.6930517E-1,3.6840838E-1,-8.119218E-2],"split_indices":[0,0,0,0,3,2,3,1,5,1,2,1,4,1,0,0,0,0,0,0,0,0,0,0,0,0,0,0,0],"split_type":[0,0,0,0,0,0,0,0,0,0,0,0,0,0,0,0,0,0,0,0,0,0,0,0,0,0,0,0,0],"sum_hessian":[1.7903705E3,1.7069585E3,8.341195E1,8.485363E2,8.584222E2,7.455586E1,8.856083E0,1.22749435E2,7.257869E2,7.257869E2,1.3263528E2,3.3570732E1,4.098513E1,7.8263063E0,1.029777E0,1.00712204E2,2.2037231E1,6.631764E1,6.5946924E2,6.318712E2,9.391567E1,5.2930542E1,7.970475E1,8.238217E0,2.5332516E1,8.856083E0,3.2129047E1,6.796529E0,1.029777E0],"tree_param":{"num_deleted":"0","num_feature":"6","num_nodes":"29","size_leaf_vector":"1"}},{"base_weights":[5.0577678E-2,1.3722531E-1,-2.3256232E-1,3.206684E-1,7.365353E-2,-6.1202973E-1,1.728669E-2,1.1698685E0,2.9002485E-1,4.4864136E-1,3.658792E-2,3.2900456E-2,-1.0121157E0,3.775696E-1,-3.4862772E-1,1.1272764E-1,3.7166995E-1,-3.100289E-1,9.793167E-2,6.783992E-2,2.2350545E-1,-5.2364143E-3,9.437572E-2,9.574459E-2,-3.558059E-1,-3.3450842E-1,2.3364449E-1,-2.0740572E-1,1.6385204E-1,-6.6791266E-2,-4.2375672E-1],"categories":[],"categories_nodes":[],"categories_segments":[],"categories_sizes":[],"default_left":[0,0,0,0,0,0,0,0,0,0,0,0,0,0,0,0,0,0,0,0,0,0,0,0,0,0,0,0,0,0,0],"id":1,"left_children":[1,3,5,7,9,11,13,15,17,19,21,23,25,27,29,-1,-1,-1,-1,-1,-1,-1,-1,-1,-1,-1,-1,-1,-1,-1,-1],"loss_changes":[4.3492325E1,1.5801672E1,3.9400078E1,8.741123E0,1.4008867E1,4.2600517E1,3.328591E1,1.82621E-1,1.6632183E1,5.811598E0,1.3818219E1,2.2753696E1,1.963903E1,2.330195E1,1.6479237E1,0E0,0E0,0E0,0E0,0E0,0E0,0E0,0E0,0E0,0E0,0E0,0E0,0E0,0E0,0E0,0E0],"parents":[2147483647,0,0,1,1,2,2,3,3,4,4,5,5,6,6,7,7,8,8,9,9,10,10,11,11,12,12,13,13,14,14],"right_children":[2,4,6,8,10,12,14,16,18,20,22,24,26,28,30,-1,-1,-1,-1,-1,-1,-1,-1,-1,-1,-1,-1,-1,-1,-1,-1],"split_conditions":[1.0579731E0,4.026499E1,-6.476136E-2,-1.5130906E0,-1.979398E0,4.913047E1,9.220959E1,4.82205E-1,-1.1743554E0,4.848017E1,6.498797E-1,1.4960426E0,1.0375426E1,1.2795669E0,9.4392525E1,1.1272764E-1,3.7166995E-1,-3.100289E-1,9.793167E-2,6.783992E-2,2.2350545E-1,-5.2364143E-3,9.437572E-2,9.574459E-2,-3.558059E-1,-3.3450842E-1,2.3364449E-1,-2.0740572E-1,1.6385204E-1,-6.6791266E-2,-4.2375672E-1],"split_indices":[0,1,2,2,0,1,3,5,2,1,0,5,0,0,4,0,0,0,0,0,0,0,0,0,0,0,0,0,0,0,0],"split_type":[0,0,0,0,0,0,0,0,0,0,0,0,0,0,0,0,0,0,0,0,0,0,0,0,0,0,0,0,0,0,0],"sum_hessian":[1.7704784E3,1.3560193E3,4.1445914E2,3.4794455E2,1.00807477E3,1.6397159E2,2.5048753E2,1.082355E1,3.37121E2,8.968091E1,9.1839386E2,6.3128136E1,1.0084345E2,1.2619896E2,1.24288574E2,1.3809502E0,9.4426E0,8.294124E0,3.2882687E2,5.2230923E1,3.7449986E1,7.697015E2,1.4869237E2,5.1720413E1,1.1407721E1,9.5720474E1,5.122983E0,1.6771273E1,1.0942769E2,1.1220959E2,1.2078992E1],"tree_param":{"num_deleted":"0","num_feature":"6","num_nodes":"31","size_leaf_vector":"1"}},{"base_weights":[3.863701E-2,7.010193E-2,-4.3333972E-1,4.2284346E-1,4.850042E-2,-6.8783313E-1,-4.6423484E-2,-1.2652987E-1,5.105182E-1,-2.4468347E-1,7.496103E-2,-5.174392E-1,-6.9253945E-1,1.88689E-1,-1.9016855E0,7.9831384E-2,-6.3456225E-1,2.5350934E-1,7.83329E-2,-3.445492E-1,-3.699506E-2,2.4242455E-2,-3.968436E-1,-2.0338325E-1,3.118001E-1,-3.281827E-2,3.3443937E-1,-6.4030206E-1,-1.7946759E-1],"categories":[],"categories_nodes":[],"categories_segments":[],"categories_sizes":[],"default_left":[0,0,0,0,0,0,0,0,0,0,0,0,0,0,0,0,0,0,0,0,0,0,0,0,0,0,0,0,0],"id":2,"left_children":[1,3,5,7,9,11,13,15,17,19,21,23,-1,25,27,-1,-1,-1,-1,-1,-1,-1,-1,-1,-1,-1,-1,-1,-1],"loss_changes":[2.6034367E1,1.2494542E1,1.0757927E1,4.6234303E0,1.2033667E1,1.7038864E1,1.9791225E1,1.1359682E1,6.6056843E0,1.3948014E1,1.1723602E1,1.5955446E1,0E0,1.1288152E1,2.7007866E-1,0E0,0E0,0E0,0E0,0E0,0E0,0E0,0E0,0E0,0E0,0E0,0E0,0E0,0E0],"parents":[2147483647,0,0,1,1,2,2,3,3,4,4,5,5,6,6,7,7,8,8,9,9,10,10,11,11,13,13,14,14],"right_children":[2,4,6,8,10,12,14,16,18,20,22,24,-1,26,28,-1,-1,-1,-1,-1,-1,-1,-1,-1,-1,-1,-1,-1,-1],"split_conditions":[2.8838022E0,-3.0075965E0,1.996569E-1,-9.124592E-1,3.463343E-1,7.96953E1,7.4287057E0,3.2125603E1,3.667141E1,-1.5511589E0,3.2643774E2,1.0375426E1,-6.9253945E-1,1.6343751E0,1.299363E0,7.9831384E-2,-6.3456225E-1,2.5350934E-1,7.83329E-2,-3.445492E-1,-3.699506E-2,2.4242455E-2,-3.968436E-1,-2.0338325E-1,3.118001E-1,-3.281827E-2,3.3443937E-1,-6.4030206E-1,-1.7946759E-1],"split_indices":[0,0,2,2,5,3,0,4,1,0,3,0,0,2,5,0,0,0,0,0,0,0,0,0,0,0,0,0,0],"split_type":[0,0,0,0,0,0,0,0,0,0,0,0,0,0,0,0,0,0,0,0,0,0,0,0,0,0,0,0,0],"sum_hessian":[1.7500264E3,1.6414486E3,1.0857777E2,9.364815E1,1.5478005E3,6.5028E1,4.354977E1,1.28274765E1,8.082067E1,1.27446365E2,1.4203541E3,6.003516E1,4.9928393E0,3.944882E1,4.10095E0,1.1435833E1,1.391643E0,3.3500637E1,4.7320038E1,1.4085912E1,1.1336045E2,1.4153755E3,4.9785957E0,5.4935745E1,5.099413E0,3.051042E1,8.938399E0,2.9389377E0,1.1620122E0],"tree_param":{"num_deleted":"0","num_feature":"6","num_nodes":"29","size_leaf_vector":"1"}},{"base_weights":[2.7388528E-2,1.3445966E-1,-6.260849E-2,4.80154E-2,3.1147107E-1,-4.064404E-2,-6.6082567E-1,1.1257447E-1,-6.383475E-1,3.8366303E-1,-2.4394913E-1,-5.1075265E-2,3.7444386E-1,-3.5848525E-1,-5.717006E-1,7.1630077E-3,9.681968E-2,-4.6018907E-1,-1.50585845E-2,6.366974E-2,1.7612855E-1,1.5083472E-1,-3.0764866E-1,-5.929881E-4,-1.06089935E-1,-2.265532E-1,2.8852406E-1],"categories":[],"categories_nodes":[],"categories_segments":[],"categories_sizes":[],"default_left":[0,0,0,0,0,0,0,0,0,0,0,0,0,0,0,0,0,0,0,0,0,0,0,0,0,0,0],"id":3,"left_children":[1,3,5,7,9,11,13,15,17,19,21,23,-1,25,-1,-1,-1,-1,-1,-1,-1,-1,-1,-1,-1,-1,-1],"loss_changes":[1.6716362E1,1.2106251E1,1.2360309E1,2.3708012E1,1.0508202E1,1.2303121E1,1.185841E1,9.096445E0,2.4158796E1,7.9051857E0,1.8308453E1,1.3429429E1,0E0,1.5412996E1,0E0,0E0,0E0,0E0,0E0,0E0,0E0,0E0,0E0,0E0,0E0,0E0,0E0],"parents":[2147483647,0,0,1,1,2,2,3,3,4,4,5,5,6,6,7,7,8,8,9,9,10,10,11,11,13,13],"right_children":[2,4,6,8,10,12,14,16,18,20,22,24,-1,26,-1,-1,-1,-1,-1,-1,-1,-1,-1,-1,-1,-1,-1],"split_conditions":[-1.3974194E-1,1.8464252E-1,5.101425E0,6.996587E1,6.620432E-1,2.0947022E0,8.058394E1,-5.737549E-1,5.2018887E1,-1.0823106E0,-3.1098628E0,1.3704504E2,3.7444386E-1,1.0005866E0,-5.717006E-1,7.1630077E-3,9.681968E-2,-4.6018907E-1,-1.50585845E-2,6.366974E-2,1.7612855E-1,1.5083472E-1,-3.0764866E-1,-5.929881E-4,-1.06089935E-1,-2.265532E-1,2.8852406E-1],"split_indices":[0,2,0,4,2,2,4,0,1,0,0,3,0,2,0,0,0,0,0,0,0,0,0,0,0,0,0],"split_type":[0,0,0,0,0,0,0,0,0,0,0,0,0,0,0,0,0,0,0,0,0,0,0,0,0,0,0],"sum_hessian":[1.7328938E3,7.911517E2,9.4174207E2,5.324156E2,2.587361E2,9.094193E2,3.2322765E1,4.8740628E2,4.500929E1,2.292483E2,2.9487814E1,9.0307043E2,6.348913E0,2.704275E1,5.2800145E0,3.4353134E2,1.4387492E2,1.7203833E1,2.7805458E1,1.255183E2,1.0373001E2,1.5262184E1,1.422563E1,7.778488E2,1.2522161E2,2.1123682E1,5.919067E0],"tree_param":{"num_deleted":"0","num_feature":"6","num_nodes":"27","size_leaf_vector":"1"}},{"base_weights":[2.0680867E-2,6.530326E-2,-1.1268295E-1,1.1821476E-2,2.3238927E-1,-3.3183062E-1,3.0466713E-2,2.6816549E-2,-8.075629E-1,3.3547416E-1,-3.5064122E-1,-1.3584001E-1,-1.1638017E0,-2.697629E-1,2.5617006E-1,5.7692632E-2,-7.475201E-3,2.476206E-1,-3.0873638E-1,8.1957564E-2,2.3876993E-1,-2.3103E-1,8.762996E-2,-6.656136E-2,2.73972E-1,-4.197656E-1,1.9047679E-1,5.1913608E-2,-1.6915937E-1,1.8862332E-1,-3.194459E-2],"categories":[],"categories_nodes":[],"categories_segments":[],"categories_sizes":[],"default_left":[0,0,0,0,0,0,0,0,0,0,0,0,0,0,0,0,0,0,0,0,0,0,0,0,0,0,0,0,0,0,0],"id":4,"left_children":[1,3,5,7,9,11,13,15,17,19,21,23,25,27,29,-1,-1,-1,-1,-1,-1,-1,-1,-1,-1,-1,-1,-1,-1,-1,-1],"loss_changes":[1.0247007E1,1.1523954E1,1.3554428E1,1.20404625E1,1.8912308E1,2.7671875E1,1.7827906E1,8.2374325E0,7.2213316E0,7.417429E0,1.3023708E1,1.2771891E1,1.461182E1,1.4807811E1,2.0350063E1,0E0,0E0,0E0,0E0,0E0,0E0,0E0,0E0,0E0,0E0,0E0,0E0,0E0,0E0,0E0,0E0],"parents":[2147483647,0,0,1,1,2,2,3,3,4,4,5,5,6,6,7,7,8,8,9,9,10,10,11,11,12,12,13,13,14,14],"right_children":[2,4,6,8,10,12,14,16,18,20,22,24,26,28,30,-1,-1,-1,-1,-1,-1,-1,-1,-1,-1,-1,-1,-1,-1,-1,-1],"split_conditions":[1.0108241E0,1.2607592E0,-7.934437E-2,1.2003573E0,2.8578073E-1,5.6690063E1,1.7502927E0,-1.3639091E0,-1.9922836E2,6.30977E1,8.916968E1,6.0986546E1,1.0375426E1,6.747212E1,2.4361243E0,5.7692632E-2,-7.475201E-3,2.476206E-1,-3.0873638E-1,8.1957564E-2,2.3876993E-1,-2.3103E-1,8.762996E-2,-6.656136E-2,2.73972E-1,-4.197656E-1,1.9047679E-1,5.1913608E-2,-1.6915937E-1,1.8862332E-1,-3.194459E-2],"split_indices":[0,5,2,5,2,1,0,0,3,1,4,4,0,4,0,0,0,0,0,0,0,0,0,0,0,0,0,0,0,0,0],"split_type":[0,0,0,0,0,0,0,0,0,0,0,0,0,0,0,0,0,0,0,0,0,0,0,0,0,0,0,0,0,0,0],"sum_hessian":[1.7196566E3,1.288909E3,4.3074762E2,9.771942E2,3.117148E2,1.6967471E2,2.610729E2,9.605824E2,1.6611782E1,2.6524225E2,4.6472553E1,1.3826611E2,3.14086E1,1.1195528E2,1.4911763E2,2.2812215E2,7.3246027E2,1.6589909E0,1.4952792E1,2.3504129E2,3.0200964E1,2.8000814E1,1.847174E1,1.2851553E2,9.750577E0,2.7969995E1,3.4386053E0,4.484576E1,6.710951E1,7.319069E1,7.592695E1],"tree_param":{"num_deleted":"0","num_feature":"6","num_nodes":"31","size_leaf_vector":"1"}},{"base_weights":[1.6372845E-2,2.0229373E-2,-9.6691173E-1,-8.122658E-2,5.9644423E-2,-5.4356843E-1,-2.8309028E-3,-3.651009E-2,-9.731612E-1,6.187966E-1,4.0145032E-2,2.5306252E-1,-2.0661388E-1,4.958787E-2,-5.328889E-2,-3.5813534E-1,1.419818E-1,2.671234E-1,5.5791587E-2,5.6904465E-2,-4.9967556E-3],"categories":[],"categories_nodes":[],"categories_segments":[],"categories_sizes":[],"default_left":[0,0,0,0,0,0,0,0,0,0,0,0,0,0,0,0,0,0,0,0,0],"id":5,"left_children":[1,3,5,7,9,-1,11,13,15,17,19,-1,-1,-1,-1,-1,-1,-1,-1,-1,-1],"loss_changes":[6.490492E0,6.8059716E0,5.442439E0,1.8960758E1,1.3336578E1,0E0,2.975581E0,1.2975242E1,7.8087177E0,4.6810474E0,1.0070362E1,0E0,0E0,0E0,0E0,0E0,0E0,0E0,0E0,0E0,0E0],"parents":[2147483647,0,0,1,1,2,2,3,3,4,4,6,6,7,7,8,8,9,9,10,10],"right_children":[2,4,6,8,10,-1,12,14,16,18,20,-1,-1,-1,-1,-1,-1,-1,-1,-1,-1],"split_conditions":[3.2643774E2,-1.5707472E-1,8.600237E1,5.6690063E1,-1.3815285E-1,-5.4356843E-1,2.6501372E0,-1.21996735E2,1.0375426E1,7.807165E-1,-8.3449465E-1,2.5306252E-1,-2.0661388E-1,4.958787E-2,-5.328889E-2,-3.5813534E-1,1.419818E-1,2.671234E-1,5.5791587E-2,5.6904465E-2,-4.9967556E-3],"split_indices":[3,2,4,1,2,0,5,3,0,5,0,0,0,0,0,0,0,0,0,0,0],"split_type":[0,0,0,0,0,0,0,0,0,0,0,0,0,0,0,0,0,0,0,0,0],"sum_hessian":[1.7054402E3,1.699753E3,5.687154E0,4.752862E2,1.2244669E3,2.562133E0,3.125021E0,4.5358688E2,2.1699312E1,4.022639E1,1.1842405E3,1.2959569E0,1.829064E0,1.8658966E2,2.6699722E2,1.8979115E1,2.7201965E0,2.4066496E1,1.6159895E1,3.253556E2,8.5888495E2],"tree_param":{"num_deleted":"0","num_feature":"6","num_nodes":"21","size_leaf_vector":"1"}},{"base_weights":[1.1761063E-2,6.2071383E-3,5.821157E-1,1.5365384E-2,-6.374664E-1,9.1147304E-1,-3.4275526E-1,2.3485549E-2,-5.589096E-1,2.5420436E-1,-8.6319494E-1,1.128542E0,-6.090279E-2,1.342037E-2,-5.0710507E-2,-2.6900288E-1,1.17979415E-1,-3.7063712E-1,1.2565751E-1,6.885356E-2,3.6063725E-1],"categories":[],"categories_nodes":[],"categories_segments":[],"categories_sizes":[],"default_left":[0,0,0,0,0,0,0,0,0,0,0,0,0,0,0,0,0,0,0,0,0],"id":6,"left_children":[1,3,5,7,9,11,-1,13,15,-1,17,19,-1,-1,-1,-1,-1,-1,-1,-1,-1],"loss_changes":[5.3675365E0,9.914761E0,1.0323479E1,7.7431374E0,8.639634E0,3.68301E0,0E0,6.698214E0,7.798799E0,0E0,1.0528808E1,5.2468204E-1,0E0,0E0,0E0,0E0,0E0,0E0,0E0,0E0,0E0],"parents":[2147483647,0,0,1,1,2,2,3,3,4,4,5,5,7,7,8,8,10,10,11,11],"right_children":[2,4,6,8,10,12,-1,14,16,-1,18,20,-1,-1,-1,-1,-1,-1,-1,-1,-1],"split_conditions":[1.6343751E0,8.803786E-1,7.4287057E0,5.101425E0,-3.1098628E0,9.125E1,-3.4275526E-1,1.401617E2,1.0375426E1,2.5420436E-1,1.8243477E0,5.8576805E1,-6.090279E-2,1.342037E-2,-5.0710507E-2,-2.6900288E-1,1.17979415E-1,-3.7063712E-1,1.2565751E-1,6.885356E-2,3.6063725E-1],"split_indices":[2,2,0,0,0,4,0,3,0,0,5,1,0,0,0,0,0,0,0,0,0],"split_type":[0,0,0,0,0,0,0,0,0,0,0,0,0,0,0,0,0,0,0,0,0],"sum_hessian":[1.6945957E3,1.6792545E3,1.5341143E1,1.6566595E3,2.2594973E1,1.3277083E1,2.0640593E0,1.634507E3,2.215259E1,2.6182985E0,1.9976675E1,1.1102099E1,2.1749835E0,1.4727258E3,1.6178113E2,1.6395033E1,5.7575564E0,1.5509593E1,4.467082E0,1.1515479E0,9.950552E0],"tree_param":{"num_deleted":"0","num_feature":"6","num_nodes":"21","size_leaf_vector":"1"}},{"base_weights":[8.599779E-3,-2.37909E-2,1.0841963E-1,-1.5356662E-2,-6.7703325E-1,1.8278769E-1,-7.661728E-2,-6.4977184E-2,1.3520159E-1,-6.077088E-1,-6.9577033E-3,9.29433E-2,3.8819584E-1,-7.237457E-1,6.1531324E-2,-7.6299417E-3,-8.865908E-2,2.4299636E-2,1.7548026E-1,1.4976689E-1,-4.1847494E-1,5.5677176E-2,-1.6521223E-1,1.2681268E-1,-2.5656644E-1,-1.3246303E-2,-8.119891E-1,-2.843084E-2,1.7485227E-1],"categories":[],"categories_nodes":[],"categories_segments":[],"categories_sizes":[],"default_left":[0,0,0,0,0,0,0,0,0,0,0,0,0,0,0,0,0,0,0,0,0,0,0,0,0,0,0,0,0],"id":7,"left_children":[1,3,5,7,9,11,13,15,17,-1,19,21,23,25,27,-1,-1,-1,-1,-1,-1,-1,-1,-1,-1,-1,-1,-1,-1],"loss_changes":[5.457571E0,7.0123615E0,5.7044353E0,9.4176E0,1.4647931E1,5.413003E0,1.0706051E1,8.634542E0,7.5705996E0,0E0,9.016395E0,1.243021E1,4.203784E0,2.8257717E1,8.138009E0,0E0,0E0,0E0,0E0,0E0,0E0,0E0,0E0,0E0,0E0,0E0,0E0,0E0,0E0],"parents":[2147483647,0,0,1,1,2,2,3,3,4,4,5,5,6,6,7,7,8,8,10,10,11,11,12,12,13,13,14,14],"right_children":[2,4,6,8,10,12,14,16,18,-1,20,22,24,26,28,-1,-1,-1,-1,-1,-1,-1,-1,-1,-1,-1,-1,-1,-1],"split_conditions":[1.2607592E0,7.253398E1,1.19119705E2,2.0697233E-1,5.419323E-1,5.273991E1,1.4281969E2,1.0363498E-1,2.0082738E0,-6.077088E-1,9.0687164E1,1.0108241E0,9.517731E1,1.7976165E0,7.450236E-1,-7.6299417E-3,-8.865908E-2,2.4299636E-2,1.7548026E-1,1.4976689E-1,-4.1847494E-1,5.5677176E-2,-1.6521223E-1,1.2681268E-1,-2.5656644E-1,-1.3246303E-2,-8.119891E-1,-2.843084E-2,1.7485227E-1],"split_indices":[5,1,3,2,2,1,3,2,0,0,4,0,4,5,2,0,0,0,0,0,0,0,0,0,0,0,0,0,0],"split_type":[0,0,0,0,0,0,0,0,0,0,0,0,0,0,0,0,0,0,0,0,0,0,0,0,0,0,0,0,0],"sum_hessian":[1.6861635E3,1.27364E3,4.1252353E2,1.2584156E3,1.5224332E1,2.94267E2,1.1825651E2,9.469058E2,3.1150986E2,4.3818617E0,1.084247E1,2.0573302E2,8.8534E1,2.0058367E1,9.819814E1,8.0922015E2,1.3768565E2,2.7905734E2,3.2452522E1,8.414184E0,2.4282863E0,1.8046805E2,2.5264969E1,8.678517E1,1.7488195E0,1.5699846E1,4.35852E0,7.617677E1,2.202137E1],"tree_param":{"num_deleted":"0","num_feature":"6","num_nodes":"29","size_leaf_vector":"1"}},{"base_weights":[5.994098E-3,5.6402445E-1,9.3984173E-4,9.2633206E-1,-4.5758796E-1,-7.7722985E-1,1.1430117E-2,-2.4051422E-2,1.0467803E0,-2.3778349E-1,8.707795E-2,-1.0171498E0,6.039217E-1,5.067258E-1,-1.9196313E-3,9.091304E-2,3.3956218E-1,-4.1441807E-1,-3.2171458E-2,-7.999568E-2,3.0082467E-1,1.9384624E-1,-2.2656417E-1,-3.4638774E-2,9.793123E-3],"categories":[],"categories_nodes":[],"categories_segments":[],"categories_sizes":[],"default_left":[0,0,0,0,0,0,0,0,0,0,0,0,0,0,0,0,0,0,0,0,0,0,0,0,0],"id":8,"left_children":[1,3,5,7,9,11,13,-1,15,-1,-1,17,19,21,23,-1,-1,-1,-1,-1,-1,-1,-1,-1,-1],"loss_changes":[4.738654E0,6.00585E0,1.36106415E1,1.4736376E0,1.3869562E0,7.9631834E0,1.0878149E1,0E0,3.0943775E-1,0E0,0E0,6.2377987E0,1.6248875E0,8.08537E0,6.294111E0,0E0,0E0,0E0,0E0,0E0,0E0,0E0,0E0,0E0,0E0],"parents":[2147483647,0,0,1,1,2,2,3,3,4,4,5,5,6,6,8,8,11,11,12,12,13,13,14,14],"right_children":[2,4,6,8,10,12,14,-1,16,-1,-1,18,20,22,24,-1,-1,-1,-1,-1,-1,-1,-1,-1,-1],"split_conditions":[-1.5130906E0,3.2772782E0,-1.0925568E0,-2.4787907E2,6.2904997E0,2.9867313E0,-7.817902E-1,-2.4051422E-2,9.865471E0,-2.3778349E-1,8.707795E-2,-1.0050134E2,9.180918E0,1.8586233E0,-1.6848077E-1,9.091304E-2,3.3956218E-1,-4.1441807E-1,-3.2171458E-2,-7.999568E-2,3.0082467E-1,1.9384624E-1,-2.2656417E-1,-3.4638774E-2,9.793123E-3],"split_indices":[2,0,2,3,0,5,2,0,4,0,0,3,4,5,2,0,0,0,0,0,0,0,0,0,0],"split_type":[0,0,0,0,0,0,0,0,0,0,0,0,0,0,0,0,0,0,0,0,0,0,0,0,0],"sum_hessian":[1.6793064E3,1.4080787E1,1.6652257E3,1.0463312E1,3.617475E0,2.1177614E1,1.6440481E3,1.1540549E0,9.3092575E0,2.4569464E0,1.1605288E0,1.8267853E1,2.9097602E0,4.217919E1,1.6018689E3,1.4240487E0,7.8852086E0,1.2675573E1,5.5922804E0,1.0183276E0,1.8914326E0,3.8422012E1,3.757178E0,3.732798E2,1.2285891E3],"tree_param":{"num_deleted":"0","num_feature":"6","num_nodes":"25","size_leaf_vector":"1"}},{"base_weights":[4.7995364E-3,2.0242624E-1,-8.954878E-3,-5.1476717E-1,3.1551054E-1,-1.5658595E-2,4.361263E-1,9.319048E-2,-1.4493995E0,4.9333638E-1,-2.1271572E-2,-1.1425215E-2,-8.3535993E-1,1.3915335E-1,3.1287324E-1,-3.404207E-1,1.3674095E-1,-5.595964E-1,5.8772888E-2,1.6713496E-1,-3.9914778E-1,9.503851E-2,-1.5515037E-1,-2.5645638E-2,8.669011E-3,2.340924E-1,-4.0486357E-1,1.4581548E-1,-2.504942E-1],"categories":[],"categories_nodes":[],"categories_segments":[],"categories_sizes":[],"default_left":[0,0,0,0,0,0,0,0,0,0,0,0,0,0,0,0,0,0,0,0,0,0,0,0,0,0,0,0,0],"id":9,"left_children":[1,3,5,7,9,11,13,15,17,19,21,23,25,27,-1,-1,-1,-1,-1,-1,-1,-1,-1,-1,-1,-1,-1,-1,-1],"loss_changes":[4.5606656E0,9.016649E0,4.688138E0,8.799999E0,5.6952925E0,5.3574853E0,4.056274E0,5.049504E0,4.5195312E0,7.9722986E0,5.8235383E0,4.600443E0,7.643262E0,6.0856814E0,0E0,0E0,0E0,0E0,0E0,0E0,0E0,0E0,0E0,0E0,0E0,0E0,0E0,0E0,0E0],"parents":[2147483647,0,0,1,1,2,2,3,3,4,4,5,5,6,6,7,7,8,8,9,9,10,10,11,11,12,12,13,13],"right_children":[2,4,6,8,10,12,14,16,18,20,22,24,26,28,-1,-1,-1,-1,-1,-1,-1,-1,-1,-1,-1,-1,-1,-1,-1],"split_conditions":[-1.6634688E2,2.5287968E1,3.7468271E0,2.3591087E1,3.0632725E-1,3.3386078E0,5.419323E-1,-3.2681284E0,4.220779E1,4.335548E1,-5.565447E-1,-5.2970033E-2,3.937391E1,6.8827286E1,3.1287324E-1,-3.404207E-1,1.3674095E-1,-5.595964E-1,5.8772888E-2,1.6713496E-1,-3.9914778E-1,9.503851E-2,-1.5515037E-1,-2.5645638E-2,8.669011E-3,2.340924E-1,-4.0486357E-1,1.4581548E-1,-2.504942E-1],"split_indices":[3,1,5,4,0,5,2,0,4,4,2,2,1,1,0,0,0,0,0,0,0,0,0,0,0,0,0,0,0],"split_type":[0,0,0,0,0,0,0,0,0,0,0,0,0,0,0,0,0,0,0,0,0,0,0,0,0,0,0,0,0],"sum_hessian":[1.6761344E3,1.0817227E2,1.567962E3,1.4249334E1,9.3922935E1,1.5456467E3,2.231538E1,9.178933E0,5.070401E0,6.116309E1,3.2759846E1,1.5387139E3,6.93281E0,1.5807964E1,6.507416E0,1.6071755E0,7.571758E0,3.940541E0,1.1298599E0,5.976753E1,1.3955624E0,1.9694628E1,1.3065221E1,5.420315E2,9.9668243E2,1.5487572E0,5.3840528E0,1.202632E1,3.781643E0],"tree_param":{"num_deleted":"0","num_feature":"6","num_nodes":"29","size_leaf_vector":"1"}},{"base_weights":[3.5853442E-3,1.8707591E-1,-9.58872E-3,3.8249317E-1,-1.6827723E-1,-2.0374586E-1,4.39637E-3,4.6103233E-1,-1.0810676E0,-1.9579275E0,1.8695144E-1,-6.252185E-1,9.119591E-2,5.6019616E-1,-1.0722387E-2,8.993146E-2,3.062528E-1,1.3391648E-1,-7.9607624E-1,-7.2312856E-1,5.523081E-2,-1.5758611E-1,1.6562611E-1,-4.9803725E-1,-8.5196815E-2,2.86036E-1,-5.8146194E-2,-2.583955E-1,2.3993456E-1,4.4638433E-2,-1.0013462E-2],"categories":[],"categories_nodes":[],"categories_segments":[],"categories_sizes":[],"default_left":[0,0,0,0,0,0,0,0,0,0,0,0,0,0,0,0,0,0,0,0,0,0,0,0,0,0,0,0,0,0,0],"id":10,"left_children":[1,3,5,7,9,11,13,15,17,19,21,23,25,27,29,-1,-1,-1,-1,-1,-1,-1,-1,-1,-1,-1,-1,-1,-1,-1,-1],"loss_changes":[4.0444145E0,7.847151E0,4.240255E0,8.845394E0,2.6087734E1,1.3100088E1,1.2252198E1,5.9788465E0,1.0785864E1,7.0231686E0,9.306872E0,1.4827818E1,1.5569297E1,1.3839058E1,5.135922E0,0E0,0E0,0E0,0E0,0E0,0E0,0E0,0E0,0E0,0E0,0E0,0E0,0E0,0E0,0E0,0E0],"parents":[2147483647,0,0,1,1,2,2,3,3,4,4,5,5,6,6,7,7,8,8,9,9,10,10,11,11,12,12,13,13,14,14],"right_children":[2,4,6,8,10,12,14,16,18,20,22,24,26,28,30,-1,-1,-1,-1,-1,-1,-1,-1,-1,-1,-1,-1,-1,-1,-1,-1],"split_conditions":[-2.5424774E0,5.7736572E1,-1.5511589E0,5.186722E-1,3.146612E-1,2.6032045E-2,-1.4207693E0,3.8966076E1,-4.638452E0,8.53866E-1,-4.006062E0,-2.1775088E0,-3.828972E1,-2.1645798E-1,-1.21996735E2,8.993146E-2,3.062528E-1,1.3391648E-1,-7.9607624E-1,-7.2312856E-1,5.523081E-2,-1.5758611E-1,1.6562611E-1,-4.9803725E-1,-8.5196815E-2,2.86036E-1,-5.8146194E-2,-2.583955E-1,2.3993456E-1,4.4638433E-2,-1.0013462E-2],"split_indices":[0,4,0,3,2,2,0,1,0,5,0,0,3,2,3,0,0,0,0,0,0,0,0,0,0,0,0,0,0,0,0],"split_type":[0,0,0,0,0,0,0,0,0,0,0,0,0,0,0,0,0,0,0,0,0,0,0,0,0,0,0,0,0,0,0],"sum_hessian":[1.6713588E3,1.1107583E2,1.560283E3,7.161606E1,3.945977E1,1.03923836E2,1.4563591E3,6.861876E1,2.9973006E0,5.787993E0,3.367178E1,4.232355E1,6.1600285E1,3.7611782E1,1.4187473E3,5.4464905E1,1.4153853E1,1.883707E0,1.1135936E0,4.675086E0,1.112907E0,1.1263138E1,2.240864E1,9.536228E0,3.2787323E1,1.472069E1,4.6879593E1,5.050576E0,3.2561203E1,1.7574916E2,1.2429982E3],"tree_param":{"num_deleted":"0","num_feature":"6","num_nodes":"31","size_leaf_vector":"1"}},{"base_weights":[3.6754766E-3,-3.452545E-1,9.007078E-3,-9.4982827E-1,4.868149E-1,1.714344E-1,-4.011607E-3,-1.2977626E0,1.731862E-1,8.4252185E-1,-2.59547E-1,2.4326524E-1,-2.802302E-1,-7.015252E-1,3.7180385E-4,-4.6383125E-1,8.591415E-2,-1.1304385E-1,2.5073433E-1,3.0235478E-1,-7.367713E-2,5.576922E-2,2.5324997E-1,-5.168305E-1,2.146184E-2,1.0639405E-1,-4.214268E-1,2.8499803E-3,-7.0330426E-2],"categories":[],"categories_nodes":[],"categories_segments":[],"categories_sizes":[],"default_left":[0,0,0,0,0,0,0,0,0,0,0,0,0,0,0,0,0,0,0,0,0,0,0,0,0,0,0,0,0],"id":11,"left_children":[1,3,5,7,9,11,13,15,17,19,-1,21,23,25,27,-1,-1,-1,-1,-1,-1,-1,-1,-1,-1,-1,-1,-1,-1],"loss_changes":[3.1070814E0,1.3106951E1,3.4778085E0,6.045533E0,6.1337843E0,4.0275354E0,4.6577587E0,4.96344E0,1.92058E0,1.9393406E0,0E0,3.4912477E0,8.856376E0,7.56435E0,3.248954E0,0E0,0E0,0E0,0E0,0E0,0E0,0E0,0E0,0E0,0E0,0E0,0E0,0E0,0E0],"parents":[2147483647,0,0,1,1,2,2,3,3,4,4,5,5,6,6,7,7,8,8,9,9,11,11,12,12,13,13,14,14],"right_children":[2,4,6,8,10,12,14,16,18,20,-1,22,24,26,28,-1,-1,-1,-1,-1,-1,-1,-1,-1,-1,-1,-1,-1,-1],"split_conditions":[2.212051E-1,4.913047E1,-2.3248668E0,2.7495155E1,5.7078125E1,7.83105E1,2.4083326E1,4.5165232E-1,-9.6102655E-1,7.902098E1,-2.59547E-1,4.6879368E1,4.626411E1,1.3573407E1,9.482401E1,-4.6383125E-1,8.591415E-2,-1.1304385E-1,2.5073433E-1,3.0235478E-1,-7.367713E-2,5.576922E-2,2.5324997E-1,-5.168305E-1,2.146184E-2,1.0639405E-1,-4.214268E-1,2.8499803E-3,-7.0330426E-2],"split_indices":[5,1,0,3,1,4,1,2,0,4,0,1,1,4,4,0,0,0,0,0,0,0,0,0,0,0,0,0,0],"split_type":[0,0,0,0,0,0,0,0,0,0,0,0,0,0,0,0,0,0,0,0,0,0,0,0,0,0,0,0,0],"sum_hessian":[1.6674832E3,2.4135925E1,1.6433473E3,1.3896983E1,1.0238942E1,1.2103896E2,1.5223083E3,1.0491028E1,3.4059556E0,8.404514E0,1.8344281E0,1.0482883E2,1.6210135E1,8.513729E0,1.5137946E3,9.090024E0,1.4010041E0,2.0967867E0,1.3091688E0,7.360002E0,1.0445122E0,9.68883E1,7.940531E0,2.413875E0,1.3796259E1,3.6010516E0,4.9126773E0,1.4580714E3,5.5723145E1],"tree_param":{"num_deleted":"0","num_feature":"6","num_nodes":"29","size_leaf_vector":"1"}},{"base_weights":[2.755166E-3,8.324449E-3,-3.162124E-1,4.472581E-3,7.364948E-1,-6.0969245E-2,-3.9524913E-1,1.3522541E-2,-7.001239E-1,8.9319366E-1,-4.9603665E-3,-9.3249226E-1,2.950058E-1,-1.9987533E-3,5.560028E-2,3.292695E-1,-2.8912917E-1,6.412308E-2,2.9579014E-1,7.5277336E-2,-3.6010075E-1,-9.4647445E-3,2.3863171E-1],"categories":[],"categories_nodes":[],"categories_segments":[],"categories_sizes":[],"default_left":[0,0,0,0,0,0,0,0,0,0,0,0,0,0,0,0,0,0,0,0,0,0,0],"id":12,"left_children":[1,3,5,7,9,11,-1,13,15,17,-1,19,21,-1,-1,-1,-1,-1,-1,-1,-1,-1,-1],"loss_changes":[2.9613955E0,4.5909038E0,7.231079E0,1.040554E1,1.0310688E0,7.6728873E0,0E0,5.5870533E0,1.0865544E1,2.3979425E-1,0E0,2.5692744E0,2.915955E0,0E0,0E0,0E0,0E0,0E0,0E0,0E0,0E0,0E0,0E0],"parents":[2147483647,0,0,1,1,2,2,3,3,4,4,5,5,7,7,8,8,9,9,11,11,12,12],"right_children":[2,4,6,8,10,12,-1,14,16,18,-1,20,22,-1,-1,-1,-1,-1,-1,-1,-1,-1,-1],"split_conditions":[5.101425E0,1.6343751E0,8.058394E1,8.803786E-1,9.125E1,-1.0607233E1,-3.9524913E-1,1.9103364E0,4.9633953E1,5.8576805E1,-4.9603665E-3,8.349515E0,9.710149E-1,-1.9987533E-3,5.560028E-2,3.292695E-1,-2.8912917E-1,6.412308E-2,2.9579014E-1,7.5277336E-2,-3.6010075E-1,-9.4647445E-3,2.3863171E-1],"split_indices":[0,2,4,2,4,3,0,0,1,1,0,4,5,0,0,0,0,0,0,0,0,0,0],"split_type":[0,0,0,0,0,0,0,0,0,0,0,0,0,0,0,0,0,0,0,0,0,0,0],"sum_hessian":[1.6645759E3,1.6369678E3,2.7608118E1,1.629355E3,7.612802E0,2.2845367E1,4.762751E0,1.609661E3,1.9693958E1,6.1474395E0,1.4653629E0,6.155499E0,1.6689867E1,1.441294E3,1.6836711E2,2.114262E0,1.7579695E1,1.1354686E0,5.0119705E0,1.1477122E0,5.0077868E0,1.0666475E1,6.0233927E0],"tree_param":{"num_deleted":"0","num_feature":"6","num_nodes":"23","size_leaf_vector":"1"}},{"base_weights":[2.0785492E-3,-1.4512092E-2,1.1027474E-1,4.7161044E-3,-5.2955616E-1,2.3674835E-1,-4.192715E-1,-3.1096354E-2,1.5512863E-1,2.56653E-1,-6.8299437E-1,5.519021E-1,2.9860665E-3,3.573241E-1,-7.4596816E-1,3.0075612E-3,-9.65637E-2,2.6183296E-2,3.1318855E-1,-3.3373117E-1,1.6873339E-1,-6.554625E-1,-1.4517507E-1,9.447959E-2,2.6242858E-1,-4.0034896E-1,1.5084166E-2,-6.171534E-2,2.7904397E-1,-5.086036E-1,1.2946597E-3],"categories":[],"categories_nodes":[],"categories_segments":[],"categories_sizes":[],"default_left":[0,0,0,0,0,0,0,0,0,0,0,0,0,0,0,0,0,0,0,0,0,0,0,0,0,0,0,0,0,0,0],"id":13,"left_children":[1,3,5,7,9,11,13,15,17,19,21,23,25,27,29,-1,-1,-1,-1,-1,-1,-1,-1,-1,-1,-1,-1,-1,-1,-1,-1],"loss_changes":[2.9849188E0,1.4282125E1,1.4905724E1,7.4976115E0,6.4364624E0,1.3192576E1,1.1171704E1,1.344731E1,1.6051311E1,4.478207E0,1.2008547E1,5.559393E0,6.635022E0,4.514357E0,2.1788675E1,0E0,0E0,0E0,0E0,0E0,0E0,0E0,0E0,0E0,0E0,0E0,0E0,0E0,0E0,0E0,0E0],"parents":[2147483647,0,0,1,1,2,2,3,3,4,4,5,5,6,6,7,7,8,8,9,9,10,10,11,11,12,12,13,13,14,14],"right_children":[2,4,6,8,10,12,14,16,18,20,22,24,26,28,30,-1,-1,-1,-1,-1,-1,-1,-1,-1,-1,-1,-1,-1,-1,-1,-1],"split_conditions":[6.367466E1,6.1808598E1,2.4361243E0,2.0303215E-1,4.5006356E-1,2.319818E-1,9.050279E1,9.983518E-2,1.9103364E0,2.5329047E-1,5.3966665E-1,8.939828E1,2.4297315E-1,6.6821014E1,6.202881E-1,3.0075612E-3,-9.65637E-2,2.6183296E-2,3.1318855E-1,-3.3373117E-1,1.6873339E-1,-6.554625E-1,-1.4517507E-1,9.447959E-2,2.6242858E-1,-4.0034896E-1,1.5084166E-2,-6.171534E-2,2.7904397E-1,-5.086036E-1,1.2946597E-3],"split_indices":[1,1,0,2,5,2,3,2,0,5,5,4,2,1,2,0,0,0,0,0,0,0,0,0,0,0,0,0,0,0,0],"split_type":[0,0,0,0,0,0,0,0,0,0,0,0,0,0,0,0,0,0,0,0,0,0,0,0,0,0,0,0,0,0,0],"sum_hessian":[1.660975E3,1.440896E3,2.2007896E2,1.3899941E3,5.0901962E1,1.7809642E2,4.1982548E1,1.1233285E3,2.6666556E2,8.202112E0,4.269985E1,7.5264854E1,1.02831566E2,1.2403723E1,2.9578827E1,9.8499866E2,1.3832986E2,2.4877313E2,1.7892435E1,1.0158875E0,7.1862245E0,3.8300657E0,3.8869785E1,4.454529E1,3.0719563E1,2.5824835E0,1.00249084E2,6.578458E0,5.8252654E0,1.2500996E1,1.7077831E1],"tree_param":{"num_deleted":"0","num_feature":"6","num_nodes":"31","size_leaf_vector":"1"}},{"base_weights":[1.9331427E-3,4.45782E-3,-6.428272E-1,-7.28278E-3,2.2925307E-1,-3.7860242E-1,5.884841E-2,5.563911E-3,-3.1915495E-1,-8.979764E-3,6.310744E-1,2.3029962E-1,-1.5662453E-1,9.3525385E-5,2.986226E-1,-4.580884E-2,-3.4406704E-1,4.7105197E-2,-3.927345E-1,1.3010684E-1,2.9083335E-1],"categories":[],"categories_nodes":[],"categories_segments":[],"categories_sizes":[],"default_left":[0,0,0,0,0,0,0,0,0,0,0,0,0,0,0,0,0,0,0,0,0],"id":14,"left_children":[1,3,5,7,9,-1,11,13,15,17,19,-1,-1,-1,-1,-1,-1,-1,-1,-1,-1],"loss_changes":[2.6981297E0,4.3571763E0,2.8830884E0,6.2894135E0,7.849934E0,0E0,2.0421414E0,7.8407874E0,8.381873E0,1.1520899E1,1.6175823E0,0E0,0E0,0E0,0E0,0E0,0E0,0E0,0E0,0E0,0E0],"parents":[2147483647,0,0,1,1,2,2,3,3,4,4,6,6,7,7,8,8,9,9,10,10],"right_children":[2,4,6,8,10,-1,12,14,16,18,20,-1,-1,-1,-1,-1,-1,-1,-1,-1,-1],"split_conditions":[3.2643774E2,2.598437E0,8.600237E1,1.7691634E2,1.8464252E-1,-3.7860242E-1,2.6501372E0,1.727228E2,1.8586233E0,9.119265E-2,8.967742E1,2.3029962E-1,-1.5662453E-1,9.3525385E-5,2.986226E-1,-4.580884E-2,-3.4406704E-1,4.7105197E-2,-3.927345E-1,1.3010684E-1,2.9083335E-1],"split_indices":[3,5,4,3,2,0,5,3,5,2,4,0,0,0,0,0,0,0,0,0,0],"split_type":[0,0,0,0,0,0,0,0,0,0,0,0,0,0,0,0,0,0,0,0,0],"sum_hessian":[1.6547585E3,1.6492936E3,5.465026E0,1.5683495E3,8.094411E1,2.4789548E0,2.986071E0,1.5072449E3,6.110453E1,5.1429886E1,2.9514223E1,1.200207E0,1.7858641E0,1.5002847E3,6.960262E0,5.1859898E1,9.244631E0,4.638662E1,5.043265E0,2.0081543E1,9.432681E0],"tree_param":{"num_deleted":"0","num_feature":"6","num_nodes":"21","size_leaf_vector":"1"}},{"base_weights":[1.5515294E-3,-5.2971166E-2,3.112614E-2,-3.405229E-2,-1.0099672E0,2.531608E-1,8.854144E-3,5.1363254E-1,-5.1108055E-2,-1.3878843E0,3.6087608E-1,-1.19276956E-1,3.5723445E-1,-4.1717857E-1,2.5238436E-2,-5.0797414E-2,2.3881543E-1,-3.1690228E-1,-1.1775827E-2,2.6762081E-2,-6.482322E-1,2.1973187E-1,-5.921174E-2,5.7813156E-2,-3.4752935E-1,2.0459206E-1,4.0435497E-2,2.3367983E-1,-1.6122413E-1,4.7761437E-2,-2.2957614E-3],"categories":[],"categories_nodes":[],"categories_segments":[],"categories_sizes":[],"default_left":[0,0,0,0,0,0,0,0,0,0,0,0,0,0,0,0,0,0,0,0,0,0,0,0,0,0,0,0,0,0,0],"id":15,"left_children":[1,3,5,7,9,11,13,15,17,19,21,23,25,27,29,-1,-1,-1,-1,-1,-1,-1,-1,-1,-1,-1,-1,-1,-1,-1,-1],"loss_changes":[2.6677804E0,1.04998665E1,5.3019047E0,5.3655667E0,6.326185E0,3.831334E0,6.822191E0,3.4818554E0,6.575467E0,1.0491137E1,8.132216E-1,7.3875203E0,5.4449635E0,5.6241574E0,4.146E0,0E0,0E0,0E0,0E0,0E0,0E0,0E0,0E0,0E0,0E0,0E0,0E0,0E0,0E0,0E0,0E0],"parents":[2147483647,0,0,1,1,2,2,3,3,4,4,5,5,6,6,7,7,8,8,9,9,10,10,11,11,12,12,13,13,14,14],"right_children":[2,4,6,8,10,12,14,16,18,20,22,24,26,28,30,-1,-1,-1,-1,-1,-1,-1,-1,-1,-1,-1,-1,-1,-1,-1,-1],"split_conditions":[6.111692E-1,6.0212386E-1,6.675275E-1,-4.638452E0,8.301075E1,4.297578E1,6.921116E-1,-6.0863967E0,-4.006062E0,-6.592235E1,8.769939E1,4.012957E1,1.5838028E1,1.1423841E1,-9.4926584E-1,-5.0797414E-2,2.3881543E-1,-3.1690228E-1,-1.1775827E-2,2.6762081E-2,-6.482322E-1,2.1973187E-1,-5.921174E-2,5.7813156E-2,-3.4752935E-1,2.0459206E-1,4.0435497E-2,2.3367983E-1,-1.6122413E-1,4.7761437E-2,-2.2957614E-3],"split_indices":[5,5,5,0,4,1,5,0,0,3,3,1,3,4,0,0,0,0,0,0,0,0,0,0,0,0,0,0,0,0,0],"split_type":[0,0,0,0,0,0,0,0,0,0,0,0,0,0,0,0,0,0,0,0,0,0,0,0,0,0,0,0,0,0,0],"sum_hessian":[1.6524279E3,5.808333E2,1.0715946E3,5.7058887E2,1.02444E1,9.674587E1,9.748487E2,1.6353086E1,5.542358E2,8.020782E0,2.2236178E0,2.1098118E1,7.564776E1,3.519623E1,9.3965247E2,4.9012127E0,1.1451874E1,5.4333005E0,5.488025E2,3.0590763E0,4.961706E0,1.1476948E0,1.0759231E0,1.6852888E1,4.245228E0,2.9913418E1,4.573434E1,2.7144275E0,3.2481804E1,1.844676E2,7.551849E2],"tree_param":{"num_deleted":"0","num_feature":"6","num_nodes":"31","size_leaf_vector":"1"}},{"base_weights":[1.5712879E-3,8.09482E-3,-2.1702068E-1,6.778203E-1,4.1008517E-3,4.0054768E-1,-3.8255197E-1,-1.06969014E-1,9.358436E-1,-4.7389406E-1,9.95067E-3,-2.851762E-1,9.179551E-1,-9.725032E-1,-2.0786764E-1,3.026027E-1,8.506143E-2,-3.3713404E-2,-3.5549244E-1,1.3188149E-1,7.397396E-5,4.4348902E-1,1.3016814E-1,1.4424366E-1,-4.0179378E-1,2.6670374E-2,-1.8159646E-1],"categories":[],"categories_nodes":[],"categories_segments":[],"categories_sizes":[],"default_left":[0,0,0,0,0,0,0,0,0,0,0,0,0,0,0,0,0,0,0,0,0,0,0,0,0,0,0],"id":16,"left_children":[1,3,5,7,9,11,13,-1,15,17,19,-1,21,23,25,-1,-1,-1,-1,-1,-1,-1,-1,-1,-1,-1,-1],"loss_changes":[2.355622E0,4.2872076E0,5.046887E0,2.8696475E0,4.465508E0,8.288069E0,3.7410693E0,0E0,8.8401794E-2,4.83038E0,6.575068E0,0E0,1.5770111E0,5.1589804E0,3.6859841E0,0E0,0E0,0E0,0E0,0E0,0E0,0E0,0E0,0E0,0E0,0E0,0E0],"parents":[2147483647,0,0,1,1,2,2,3,3,4,4,5,5,6,6,8,8,9,9,10,10,12,12,13,13,14,14],"right_children":[2,4,6,8,10,12,14,-1,16,18,20,-1,22,24,26,-1,-1,-1,-1,-1,-1,-1,-1,-1,-1,-1,-1],"split_conditions":[4.049311E0,-1.5130906E0,4.2381227E-1,9.865471E0,-1.0925568E0,-5.565447E-1,4.630963E0,-1.06969014E-1,1.8586233E0,3.434177E1,-7.817902E-1,-2.851762E-1,5.4135338E1,1.3573407E1,7.821149E1,3.026027E-1,8.506143E-2,-3.3713404E-2,-3.5549244E-1,1.3188149E-1,7.397396E-5,4.4348902E-1,1.3016814E-1,1.4424366E-1,-4.0179378E-1,2.6670374E-2,-1.8159646E-1],"split_indices":[0,2,5,4,2,2,0,0,5,1,2,0,4,4,3,0,0,0,0,0,0,0,0,0,0,0,0],"split_type":[0,0,0,0,0,0,0,0,0,0,0,0,0,0,0,0,0,0,0,0,0,0,0,0,0,0,0],"sum_hessian":[1.6496866E3,1.6028162E3,4.687055E1,8.501714E0,1.5943145E3,9.607366E0,3.726318E1,1.621084E0,6.8806305E0,1.8308367E1,1.5760061E3,2.4284933E0,7.1788726E0,7.469538E0,2.9793642E1,5.6980944E0,1.182536E0,1.2905303E1,5.4030647E0,3.3830708E1,1.5421753E3,2.3753088E0,4.803564E0,1.4426996E0,6.0268383E0,1.7501806E1,1.2291837E1],"tree_param":{"num_deleted":"0","num_feature":"6","num_nodes":"27","size_leaf_vector":"1"}},{"base_weights":[1.270144E-3,-5.165089E-1,4.8255497E-3,2.3692869E-1,-8.854459E-1,-1.18065126E-1,1.7321084E-2,-1.2617807E0,2.0572688E-1,4.0928133E-2,-4.6510845E-1,1.9796123E-1,1.0269352E-3,-5.396223E-1,1.2998682E-1,3.5075632E-1,-9.596242E-3,3.1938133E-1,-1.8275775E-1,7.5708054E-2,-3.3154774E-1,-6.325632E-2,7.884669E-3],"categories":[],"categories_nodes":[],"categories_segments":[],"categories_sizes":[],"default_left":[0,0,0,0,0,0,0,0,0,0,0,0,0,0,0,0,0,0,0,0,0,0,0],"id":17,"left_children":[1,3,5,-1,7,9,11,13,-1,15,17,19,21,-1,-1,-1,-1,-1,-1,-1,-1,-1,-1],"loss_changes":[3.034174E0,6.1163797E0,2.5151737E0,0E0,6.326683E0,8.360678E0,4.37488E0,7.882121E0,0E0,8.642448E0,1.11355295E1,8.996704E0,7.3068123E0,0E0,0E0,0E0,0E0,0E0,0E0,0E0,0E0,0E0,0E0],"parents":[2147483647,0,0,1,1,2,2,4,4,5,5,6,6,7,7,9,9,10,10,11,11,12,12],"right_children":[2,4,6,-1,8,10,12,14,-1,16,18,20,22,-1,-1,-1,-1,-1,-1,-1,-1,-1,-1],"split_conditions":[1.9819096E1,-1.3330152E0,3.463343E-1,2.3692869E-1,-1.1566598E2,3.031699E-1,4.2710608E-1,-1.2680364E0,2.0572688E-1,-1.1566598E2,3.1250868E1,5.6382996E-1,5.2192384E-1,-5.396223E-1,1.2998682E-1,3.5075632E-1,-9.596242E-3,3.1938133E-1,-1.8275775E-1,7.5708054E-2,-3.3154774E-1,-6.325632E-2,7.884669E-3],"split_indices":[1,2,5,0,3,5,5,0,0,3,1,2,5,0,0,0,0,0,0,0,0,0,0],"split_type":[0,0,0,0,0,0,0,0,0,0,0,0,0,0,0,0,0,0,0,0,0,0,0],"sum_hessian":[1.6458344E3,1.0240366E1,1.635594E3,2.0040643E0,8.236302E0,1.5017816E2,1.4854159E3,6.8036275E0,1.4326744E0,1.0359813E2,4.658003E1,1.2197936E2,1.3634365E3,5.12043E0,1.6831975E0,5.376108E0,9.8222015E1,3.4597502E0,4.312028E1,1.17865395E2,4.113966E0,1.4442473E2,1.2190117E3],"tree_param":{"num_deleted":"0","num_feature":"6","num_nodes":"23","size_leaf_vector":"1"}},{"base_weights":[1.728416E-3,-1.967377E-2,7.558583E-2,-1.0015805E-2,-5.211618E-1,7.052718E-1,3.1060053E-2,-1.8900473E-2,6.50668E-1,-6.750721E-1,-2.577658E-1,1.0022782E0,-7.960118E-3,9.527253E-2,-1.9822161E-1,-2.0944388E-3,-1.2518418E-1,3.179733E-1,-7.926852E-2,-1.9222504E-2,-4.7982702E-1,1.3345814E-1,3.224292E-1,-1.3291758E-1,2.621377E-1,-6.964753E-2,4.45646E-2,-1.8151747E-1,5.0751604E-2],"categories":[],"categories_nodes":[],"categories_segments":[],"categories_sizes":[],"default_left":[0,0,0,0,0,0,0,0,0,0,0,0,0,0,0,0,0,0,0,0,0,0,0,0,0,0,0,0,0],"id":18,"left_children":[1,3,5,7,9,11,13,15,17,-1,19,21,23,25,27,-1,-1,-1,-1,-1,-1,-1,-1,-1,-1,-1,-1,-1,-1],"loss_changes":[2.601371E0,6.174992E0,1.0344526E1,7.3669353E0,1.0391529E1,5.1707783E0,5.1183414E0,5.872036E0,6.5154314E0,0E0,5.623723E0,2.1743011E-1,3.516706E0,4.7664347E0,1.1477667E1,0E0,0E0,0E0,0E0,0E0,0E0,0E0,0E0,0E0,0E0,0E0,0E0,0E0,0E0],"parents":[2147483647,0,0,1,1,2,2,3,3,4,4,5,5,6,6,7,7,8,8,10,10,11,11,12,12,13,13,14,14],"right_children":[2,4,6,8,10,12,14,16,18,-1,20,22,24,26,28,-1,-1,-1,-1,-1,-1,-1,-1,-1,-1,-1,-1,-1,-1],"split_conditions":[7.956989E1,7.83105E1,8.0348946E1,7.764227E1,4.1354362E1,4.842542E-1,1.1389523E0,7.590909E1,3.146612E-1,-6.750721E-1,5.2972037E-1,6.1362363E-2,2.562777E0,-1.3639091E0,3.5975796E-1,-2.0944388E-3,-1.2518418E-1,3.179733E-1,-7.926852E-2,-1.9222504E-2,-4.7982702E-1,1.3345814E-1,3.224292E-1,-1.3291758E-1,2.621377E-1,-6.964753E-2,4.45646E-2,-1.8151747E-1,5.0751604E-2],"split_indices":[4,4,4,4,3,0,0,4,2,0,2,2,0,0,2,0,0,0,0,0,0,0,0,0,0,0,0,0,0],"split_type":[0,0,0,0,0,0,0,0,0,0,0,0,0,0,0,0,0,0,0,0,0,0,0,0,0,0,0,0,0],"sum_hessian":[1.643757E3,1.2750192E3,3.6873773E2,1.2519287E3,2.3090443E1,2.3371866E1,3.4536588E2,1.2362751E3,1.5653646E1,2.0552766E0,2.1035166E1,1.6214504E1,7.157362E0,2.7026117E2,7.5104706E1,1.2013499E3,3.492529E1,1.0706162E1,4.9474835E0,1.929707E1,1.7380978E0,2.687183E0,1.3527322E1,5.1256485E0,2.0317132E0,3.735046E1,2.329107E2,3.5332287E1,3.9772423E1],"tree_param":{"num_deleted":"0","num_feature":"6","num_nodes":"29","size_leaf_vector":"1"}},{"base_weights":[1.5901336E-3,-6.438416E-2,2.3861278E-2,-3.1005066E-2,-1.0450463E0,-4.4727552E-1,3.2663677E-2,-1.4441997E-1,8.126171E-2,-4.1393295E-1,4.5873743E-1,6.3067675E-3,-1.7874708E0,2.896003E-1,1.4913375E-2,-2.2839619E-2,-2.522721E-1,1.1931419E-1,-4.9597267E-3,1.85432E-1,1.7481064E-2,-2.8077888E-1,2.204474E-1,-6.2056184E-1,-7.668774E-2,-2.1691646E-1,1.0922991E-1,2.291339E-1,2.1820124E-3],"categories":[],"categories_nodes":[],"categories_segments":[],"categories_sizes":[],"default_left":[0,0,0,0,0,0,0,0,0,0,0,0,0,0,0,0,0,0,0,0,0,0,0,0,0,0,0,0,0],"id":19,"left_children":[1,3,5,7,9,11,13,15,17,-1,19,21,23,25,27,-1,-1,-1,-1,-1,-1,-1,-1,-1,-1,-1,-1,-1,-1],"loss_changes":[2.415532E0,1.3549063E1,5.1115274E0,5.1338797E0,7.4922323E0,1.3755104E1,5.5023313E0,9.471028E0,6.2827888E0,0E0,1.7022282E-1,1.29671E1,1.9342346E0,6.1454062E0,6.4620967E0,0E0,0E0,0E0,0E0,0E0,0E0,0E0,0E0,0E0,0E0,0E0,0E0,0E0,0E0],"parents":[2147483647,0,0,1,1,2,2,3,3,4,4,5,5,6,6,7,7,8,8,10,10,11,11,12,12,13,13,14,14],"right_children":[2,4,6,8,10,12,14,16,18,-1,20,22,24,26,28,-1,-1,-1,-1,-1,-1,-1,-1,-1,-1,-1,-1,-1,-1],"split_conditions":[-1.897117E-1,5.6981087E1,1.4942529E1,7.611759E-1,1.0375426E1,4.2675587E1,-1.3815285E-1,6.9633234E-1,9.1113937E-1,-4.1393295E-1,5.8479313E1,3.8966076E1,4.946409E1,3.3479248E1,3.1250868E1,-2.2839619E-2,-2.522721E-1,1.1931419E-1,-4.9597267E-3,1.85432E-1,1.7481064E-2,-2.8077888E-1,2.204474E-1,-6.2056184E-1,-7.668774E-2,-2.1691646E-1,1.0922991E-1,2.291339E-1,2.1820124E-3],"split_indices":[2,1,4,5,0,1,2,5,5,0,3,1,1,1,1,0,0,0,0,0,0,0,0,0,0,0,0,0,0],"split_type":[0,0,0,0,0,0,0,0,0,0,0,0,0,0,0,0,0,0,0,0,0,0,0,0,0,0,0,0,0],"sum_hessian":[1.6419305E3,4.1390875E2,1.2280219E3,4.012818E2,1.2626934E1,2.160912E1,1.2064127E3,1.9947769E2,2.0180411E2,1.0395453E1,2.2314804E0,1.6888565E1,4.720555E0,7.696886E1,1.1294438E3,1.8267628E2,1.680141E1,4.6917343E1,1.5488676E2,1.207487E0,1.0239934E0,7.23997E0,9.648595E0,3.692655E0,1.0278996E0,4.677879E0,7.229098E1,1.0406803E1,1.1190371E3],"tree_param":{"num_deleted":"0","num_feature":"6","num_nodes":"29","size_leaf_vector":"1"}},{"base_weights":[1.0959428E-3,-1.3141893E-2,9.6224666E-2,1.7058052E-5,-3.5232392E-1,3.2159427E-1,-7.27205E-2,-1.2227063E-2,3.2627365E-1,4.6507392E-2,-6.318114E-1,5.071351E-1,-2.2025868E-1,6.841449E-1,-2.0048378E-1,3.0111354E-3,-9.704793E-2,1.262023E-1,-3.5731357E-1,-1.9726817E-1,2.1774985E-1,1.6467895E-1,-2.5685602E-1,8.5884124E-2,2.9660568E-1,-1.3355075E-2,-4.2001465E-1,3.367019E-1,8.586536E-3,-1.8081714E-1,1.5794136E-2],"categories":[],"categories_nodes":[],"categories_segments":[],"categories_sizes":[],"default_left":[0,0,0,0,0,0,0,0,0,0,0,0,0,0,0,0,0,0,0,0,0,0,0,0,0,0,0,0,0,0,0],"id":20,"left_children":[1,3,5,7,9,11,13,15,17,19,21,23,25,27,29,-1,-1,-1,-1,-1,-1,-1,-1,-1,-1,-1,-1,-1,-1,-1,-1],"loss_changes":[2.219418E0,6.361883E0,8.145727E0,5.489337E0,5.9632983E0,9.319148E0,1.2006115E1,9.181745E0,7.6205983E0,1.1413627E1,8.780452E0,7.0048466E0,4.925825E0,5.1249695E0,1.0802891E1,0E0,0E0,0E0,0E0,0E0,0E0,0E0,0E0,0E0,0E0,0E0,0E0,0E0,0E0,0E0,0E0],"parents":[2147483647,0,0,1,1,2,2,3,3,4,4,5,5,6,6,7,7,8,8,9,9,10,10,11,11,12,12,13,13,14,14],"right_children":[2,4,6,8,10,12,14,16,18,20,22,24,26,28,30,-1,-1,-1,-1,-1,-1,-1,-1,-1,-1,-1,-1,-1,-1,-1,-1],"split_conditions":[6.367466E1,6.1808598E1,6.72256E1,6.0494553E1,1.4685532E-1,1.6080799E0,1.0124658E2,5.8459923E1,1.8440747E2,6.275672E1,-5.9743816E-1,1.4960426E0,6.3562804E-1,7.98005E1,8.704453E1,3.0111354E-3,-9.704793E-2,1.262023E-1,-3.5731357E-1,-1.9726817E-1,2.1774985E-1,1.6467895E-1,-2.5685602E-1,8.5884124E-2,2.9660568E-1,-1.3355075E-2,-4.2001465E-1,3.367019E-1,8.586536E-3,-1.8081714E-1,1.5794136E-2],"split_indices":[1,1,1,1,2,0,3,1,3,1,0,5,2,4,4,0,0,0,0,0,0,0,0,0,0,0,0,0,0,0,0],"split_type":[0,0,0,0,0,0,0,0,0,0,0,0,0,0,0,0,0,0,0,0,0,0,0,0,0,0,0,0,0,0,0],"sum_hessian":[1.6367059E3,1.4243818E3,2.1232417E2,1.3721477E3,5.2234077E1,9.058371E1,1.2174047E2,1.3234426E3,4.870511E1,2.1865456E1,3.036862E1,6.752569E1,2.3058018E1,1.6953531E1,1.0478694E2,1.2360018E3,8.7440765E1,4.6532803E1,2.1723075E0,1.0752925E1,1.1112531E1,4.618418E0,2.5750202E1,4.7386974E1,2.0138716E1,2.0971788E1,2.0862288E0,9.734335E0,7.219196E0,3.9939552E1,6.484739E1],"tree_param":{"num_deleted":"0","num_feature":"6","num_nodes":"31","size_leaf_vector":"1"}},{"base_weights":[1.6810041E-3,-1.2772156E-2,1.09570876E-1,9.403485E-3,-1.674865E-1,3.6309025E-1,-1.0908747E-2,-1.4514417E-2,2.0093307E-1,-1.0405592E0,-1.0125723E-1,-1.2022475E-1,6.5865743E-1,1.19604714E-1,-3.543308E-1,-1.3576255E-2,2.8859539E-2,1.4513013E-1,-2.8870696E-2,-1.077731E-1,-6.001485E-1,7.005459E-2,-6.862786E-2,1.246696E-1,-2.0672292E-1,2.9512483E-1,1.0486383E-1,-7.098054E-2,9.014504E-2,-4.8121023E-1,1.860417E-2],"categories":[],"categories_nodes":[],"categories_segments":[],"categories_sizes":[],"default_left":[0,0,0,0,0,0,0,0,0,0,0,0,0,0,0,0,0,0,0,0,0,0,0,0,0,0,0,0,0,0,0],"id":21,"left_children":[1,3,5,7,9,11,13,15,17,19,21,23,25,27,29,-1,-1,-1,-1,-1,-1,-1,-1,-1,-1,-1,-1,-1,-1,-1,-1],"loss_changes":[2.5476859E0,4.945161E0,5.8992767E0,5.780519E0,1.0342712E1,8.965378E0,5.950063E0,3.8232946E0,1.1820286E1,7.543254E0,7.2695446E0,7.738707E0,3.5505486E0,6.272904E0,1.9116333E1,0E0,0E0,0E0,0E0,0E0,0E0,0E0,0E0,0E0,0E0,0E0,0E0,0E0,0E0,0E0,0E0],"parents":[2147483647,0,0,1,1,2,2,3,3,4,4,5,5,6,6,7,7,8,8,9,9,10,10,11,11,12,12,13,13,14,14],"right_children":[2,4,6,8,10,12,14,16,18,20,22,24,26,28,30,-1,-1,-1,-1,-1,-1,-1,-1,-1,-1,-1,-1,-1,-1,-1,-1],"split_conditions":[1.9103364E0,1.1105167E0,2.4361243E0,7.206534E-1,1.9366198E1,-3.2188058E-2,9.220959E1,7.956989E1,-1.1972859E-2,-1.1313107E2,5.261928E1,-3.6350733E-1,6.3405533E1,-5.3971976E-1,3.554151E-1,-1.3576255E-2,2.8859539E-2,1.4513013E-1,-2.8870696E-2,-1.077731E-1,-6.001485E-1,7.005459E-2,-6.862786E-2,1.246696E-1,-2.0672292E-1,2.9512483E-1,1.0486383E-1,-7.098054E-2,9.014504E-2,-4.8121023E-1,1.860417E-2],"split_indices":[0,0,0,0,4,2,3,4,2,3,1,2,1,2,2,0,0,0,0,0,0,0,0,0,0,0,0,0,0,0,0],"split_type":[0,0,0,0,0,0,0,0,0,0,0,0,0,0,0,0,0,0,0,0,0,0,0,0,0,0,0,0,0,0,0],"sum_hessian":[1.6319158E3,1.4399047E3,1.9201112E2,1.2602139E3,1.7969077E2,6.1205555E1,1.3080556E2,1.1211329E3,1.3908104E2,1.1632532E1,1.6805823E2,2.3451168E1,3.775439E1,9.525628E1,3.5549286E1,8.779568E2,2.431761E2,7.0937485E1,6.8143555E1,7.607405E0,4.025127E0,4.612364E1,1.2193459E2,1.2215293E1,1.1235875E1,1.7337772E1,2.0416616E1,3.1976507E1,6.327977E1,8.170874E0,2.7378412E1],"tree_param":{"num_deleted":"0","num_feature":"6","num_nodes":"31","size_leaf_vector":"1"}},{"base_weights":[1.3992481E-3,9.632828E-3,-1.8399999E-1,1.3831108E-3,3.6920312E-1,7.330411E-1,-2.995134E-1,7.3953243E-3,-8.036892E-1,5.5354637E-1,-4.8564923E-1,-1.5942611E-1,1.1090608E0,2.0085363E-1,-6.1220914E-1,4.217859E-4,1.1730855E-1,-5.1950806E-1,6.2319636E-2,-8.658685E-2,2.2272931E-1,1.2825195E-1,-3.4236866E-1,-6.0684454E-2,-1.3592504E-2,3.782277E-1,1.0404251E-1,-3.7718773E-1,1.3623247E-1,-6.0819966E-1,-7.035442E-2],"categories":[],"categories_nodes":[],"categories_segments":[],"categories_sizes":[],"default_left":[0,0,0,0,0,0,0,0,0,0,0,0,0,0,0,0,0,0,0,0,0,0,0,0,0,0,0,0,0,0,0],"id":22,"left_children":[1,3,5,7,9,11,13,15,17,19,21,23,25,27,29,-1,-1,-1,-1,-1,-1,-1,-1,-1,-1,-1,-1,-1,-1,-1,-1],"loss_changes":[2.4850357E0,4.6226907E0,7.552346E0,7.38539E0,5.7768464E0,2.8729415E0,9.853146E0,3.4788547E0,1.0975586E1,4.8623133E0,4.518499E0,6.7580417E-3,2.3090792E-1,9.681154E0,2.0112072E1,0E0,0E0,0E0,0E0,0E0,0E0,0E0,0E0,0E0,0E0,0E0,0E0,0E0,0E0,0E0,0E0],"parents":[2147483647,0,0,1,1,2,2,3,3,4,4,5,5,6,6,7,7,8,8,9,9,10,10,11,11,12,12,13,13,14,14],"right_children":[2,4,6,8,10,12,14,16,18,20,22,24,26,28,30,-1,-1,-1,-1,-1,-1,-1,-1,-1,-1,-1,-1,-1,-1,-1,-1],"split_conditions":[9.3702774E1,9.211196E1,8.497226E-2,9.154185E1,7.3134415E1,9.517731E1,-2.5000936E-1,7.35753E1,1.4245011E-1,5.7403385E1,8.6002046E-1,8.211671E-1,1.4281969E2,7.651214E1,6.2621536E1,4.217859E-4,1.1730855E-1,-5.1950806E-1,6.2319636E-2,-8.658685E-2,2.2272931E-1,1.2825195E-1,-3.4236866E-1,-6.0684454E-2,-1.3592504E-2,3.782277E-1,1.0404251E-1,-3.7718773E-1,1.3623247E-1,-6.0819966E-1,-7.035442E-2],"split_indices":[4,4,2,4,1,4,0,1,0,1,0,0,3,3,1,0,0,0,0,0,0,0,0,0,0,0,0,0,0,0,0],"split_type":[0,0,0,0,0,0,0,0,0,0,0,0,0,0,0,0,0,0,0,0,0,0,0,0,0,0,0,0,0,0,0],"sum_hessian":[1.62577E3,1.5575474E3,6.822263E1,1.523595E3,3.39524E1,7.034109E0,6.1188526E1,1.5132847E3,1.031027E1,2.8219515E1,5.7328854E0,2.2558818E0,4.7782273E0,2.3670046E1,3.751848E1,1.4910104E3,2.2274338E1,5.0054793E0,5.304791E0,5.0729594E0,2.3146555E1,2.541178E0,3.1917076E0,1.0783529E0,1.1775289E0,3.439692E0,1.3385352E0,2.9160378E0,2.075401E1,6.983914E0,3.0534565E1],"tree_param":{"num_deleted":"0","num_feature":"6","num_nodes":"31","size_leaf_vector":"1"}},{"base_weights":[1.1839105E-3,3.1983417E-3,-5.5409545E-1,-5.0018746E-3,1.8185964E-1,-3.10452E-1,-5.294417E-3,7.739802E-3,-1.8813632E-1,-8.506573E-2,4.4686842E-1,2.0784323E-1,-1.629238E-1,-3.9271E-3,3.9637413E-2,-4.396097E-1,-3.644165E-2,4.984509E-2,-2.8625378E-1,1.9948012E-1,5.1810447E-2],"categories":[],"categories_nodes":[],"categories_segments":[],"categories_sizes":[],"default_left":[0,0,0,0,0,0,0,0,0,0,0,0,0,0,0,0,0,0,0,0,0],"id":23,"left_children":[1,3,5,7,9,-1,11,13,15,17,19,-1,-1,-1,-1,-1,-1,-1,-1,-1,-1],"loss_changes":[1.8191602E0,2.3741052E0,1.5454984E0,3.6176999E0,5.068346E0,0E0,1.7841747E0,3.7583485E0,8.408926E0,8.077179E0,2.0281634E0,0E0,0E0,0E0,0E0,0E0,0E0,0E0,0E0,0E0,0E0],"parents":[2147483647,0,0,1,1,2,2,3,3,4,4,6,6,7,7,8,8,9,9,10,10],"right_children":[2,4,6,8,10,-1,12,14,16,18,20,-1,-1,-1,-1,-1,-1,-1,-1,-1,-1],"split_conditions":[3.2643774E2,2.6501372E0,8.600237E1,1.7976165E0,5.1796093E1,-3.10452E-1,-4.1424456E-1,1.2607592E0,1.8243477E0,3.248731E1,8.115616E1,2.0784323E-1,-1.629238E-1,-3.9271E-3,3.9637413E-2,-4.396097E-1,-3.644165E-2,4.984509E-2,-2.8625378E-1,1.9948012E-1,5.1810447E-2],"split_indices":[3,5,4,5,1,0,0,5,5,4,4,0,0,0,0,0,0,0,0,0,0],"split_type":[0,0,0,0,0,0,0,0,0,0,0,0,0,0,0,0,0,0,0,0,0],"sum_hessian":[1.6237393E3,1.6188606E3,4.8786297E0,1.548748E3,7.01126E1,2.1284711E0,2.7501583E0,1.448898E3,9.9850105E1,3.5268272E1,3.4844334E1,1.0712667E0,1.6788917E0,1.2418296E3,2.0706839E2,3.912306E0,9.59378E1,2.7987387E1,7.280886E0,1.8613976E1,1.6230358E1],"tree_param":{"num_deleted":"0","num_feature":"6","num_nodes":"21","size_leaf_vector":"1"}},{"base_weights":[7.378312E-4,-5.0438236E-2,2.1210156E-2,-2.8456649E-2,-6.6646296E-1,5.417426E-1,7.6246047E-3,-5.4799985E-2,3.1247696E-1,-8.6157656E-1,1.4431374E-1,7.391459E-1,-1.1740498E-1,-1.0408516E0,1.419136E-2,3.6106075E-3,-8.6101495E-2,-3.818942E-2,2.4082842E-1,-3.6366403E-1,-2.2264287E-2,6.548658E-2,2.6219505E-1,-4.376118E-1,1.0205726E-1,6.9574036E-2,-5.8523864E-1,6.883845E-2,-3.1131605E-4],"categories":[],"categories_nodes":[],"categories_segments":[],"categories_sizes":[],"default_left":[0,0,0,0,0,0,0,0,0,0,0,0,0,0,0,0,0,0,0,0,0,0,0,0,0,0,0,0,0],"id":24,"left_children":[1,3,5,7,9,11,13,15,17,19,-1,21,23,25,27,-1,-1,-1,-1,-1,-1,-1,-1,-1,-1,-1,-1,-1,-1],"loss_changes":[1.7016122E0,6.265213E0,8.199433E0,4.050942E0,3.9843535E0,3.9242449E0,7.8056583E0,6.487035E0,7.080308E0,3.7711926E0,0E0,1.4127665E0,5.1976204E0,8.624816E0,3.69005E0,0E0,0E0,0E0,0E0,0E0,0E0,0E0,0E0,0E0,0E0,0E0,0E0,0E0,0E0],"parents":[2147483647,0,0,1,1,2,2,3,3,4,4,5,5,6,6,7,7,8,8,9,9,11,11,12,12,13,13,14,14],"right_children":[2,4,6,8,10,12,14,16,18,20,-1,22,24,26,28,-1,-1,-1,-1,-1,-1,-1,-1,-1,-1,-1,-1,-1,-1],"split_conditions":[-1.5327045E-1,5.6981087E1,-1.3815285E-1,-1.182872E1,1.0375426E1,-2.9518414E1,1.1423841E1,-7.055042E1,2.562777E0,-1.897117E-1,1.4431374E-1,2.4386251E1,4.6486062E-1,8.349515E0,2.9051989E1,3.6106075E-3,-8.6101495E-2,-3.818942E-2,2.4082842E-1,-3.6366403E-1,-2.2264287E-2,6.548658E-2,2.6219505E-1,-4.376118E-1,1.0205726E-1,6.9574036E-2,-5.8523864E-1,6.883845E-2,-3.1131605E-4],"split_indices":[2,1,2,3,0,3,4,3,0,2,0,4,5,4,4,0,0,0,0,0,0,0,0,0,0,0,0,0,0],"split_type":[0,0,0,0,0,0,0,0,0,0,0,0,0,0,0,0,0,0,0,0,0,0,0,0,0,0,0,0,0],"sum_hessian":[1.6221304E3,4.630783E2,1.1590521E3,4.4813376E2,1.4944546E1,2.8492216E1,1.1305599E3,4.1676993E2,3.1363811E1,1.2985728E1,1.9588172E0,2.1832418E1,6.6597967E0,6.05646E0,1.1245034E3,3.2435834E2,9.241159E1,1.6923838E1,1.4439974E1,8.611274E0,4.374455E0,5.0281873E0,1.6804232E1,1.1375779E0,5.5222187E0,2.8354988E0,3.2209609E0,7.336651E1,1.051137E3],"tree_param":{"num_deleted":"0","num_feature":"6","num_nodes":"29","size_leaf_vector":"1"}},{"base_weights":[4.47267E-4,-4.4606224E-2,2.4565853E-2,6.392868E-3,-3.134747E-1,1.3691056E-1,-2.5354479E-2,-1.3484632E0,2.2319032E-2,2.3068608E-1,-6.33166E-1,6.8034834E-1,9.486128E-2,-1.0258759E0,-1.0500993E-2,-7.772762E-2,-4.723457E-1,6.814468E-4,1.7145577E-1,-4.4184116E-1,1.2093983E-1,-1.5069166E-1,-5.424166E-1,-6.1546836E-2,2.6236895E-1,5.972409E-2,-3.4778424E-2,8.048862E-2,-6.0793924E-1,-5.486435E-2,1.0592831E-2],"categories":[],"categories_nodes":[],"categories_segments":[],"categories_sizes":[],"default_left":[0,0,0,0,0,0,0,0,0,0,0,0,0,0,0,0,0,0,0,0,0,0,0,0,0,0,0,0,0,0,0],"id":25,"left_children":[1,3,5,7,9,11,13,15,17,19,21,23,25,27,29,-1,-1,-1,-1,-1,-1,-1,-1,-1,-1,-1,-1,-1,-1,-1,-1],"loss_changes":[1.759936E0,7.7455997E0,5.9196243E0,1.02939415E1,1.5813106E1,7.3550415E0,1.0855815E1,9.568138E-1,5.1858664E0,1.0599772E1,7.854988E0,4.161935E0,6.6692324E0,1.4381501E1,5.704145E0,0E0,0E0,0E0,0E0,0E0,0E0,0E0,0E0,0E0,0E0,0E0,0E0,0E0,0E0,0E0,0E0],"parents":[2147483647,0,0,1,1,2,2,3,3,4,4,5,5,6,6,7,7,8,8,9,9,10,10,11,11,12,12,13,13,14,14],"right_children":[2,4,6,8,10,12,14,16,18,20,22,24,26,28,30,-1,-1,-1,-1,-1,-1,-1,-1,-1,-1,-1,-1,-1,-1,-1,-1],"split_conditions":[4.1934174E1,3.6885246E1,3.754208E-2,2.4790196E-1,-7.5163215E-1,2.919098E-1,4.6060425E1,-7.886405E1,9.119265E-2,-1.3387949E2,1.3921834E0,-9.8416305E-1,1.0579731E0,4.1814053E1,4.1354362E1,-7.772762E-2,-4.723457E-1,6.814468E-4,1.7145577E-1,-4.4184116E-1,1.2093983E-1,-1.5069166E-1,-5.424166E-1,-6.1546836E-2,2.6236895E-1,5.972409E-2,-3.4778424E-2,8.048862E-2,-6.0793924E-1,-5.486435E-2,1.0592831E-2],"split_indices":[4,4,2,5,0,5,4,3,2,3,5,0,0,1,3,0,0,0,0,0,0,0,0,0,0,0,0,0,0,0,0],"split_type":[0,0,0,0,0,0,0,0,0,0,0,0,0,0,0,0,0,0,0,0,0,0,0,0,0,0,0,0,0,0,0],"sum_hessian":[1.6176245E3,5.637294E2,1.0538953E3,4.7466995E2,8.905938E1,3.2369147E2,7.3020374E2,4.54276E0,4.701272E2,3.3061813E1,5.599757E1,2.2157103E1,3.0153436E2,9.686127E0,7.2051764E2,1.1493748E0,3.3933852E0,4.545392E2,1.5587982E1,2.3460507E0,3.0715763E1,5.1670033E1,4.3275356E0,3.9753814E0,1.818172E1,2.0181033E2,9.972403E1,4.5425744E0,5.143552E0,1.5064879E2,5.6986884E2],"tree_param":{"num_deleted":"0","num_feature":"6","num_nodes":"31","size_leaf_vector":"1"}},{"base_weights":[2.0209765E-4,2.19693E-2,-5.098388E-2,-1.5315734E-2,2.1214835E-1,-3.7028924E-1,-1.9819634E-2,1.2841118E-2,-2.7469862E-1,-1.1410938E-1,3.8812009E-1,2.2471505E-1,-1.1483744E0,3.046894E-1,-9.01267E-2,1.2756647E-3,3.3212754E-1,5.702636E-2,-1.9384025E-1,-6.745093E-2,2.5724858E-1,1.4546223E-1,-7.549187E-2,-2.822012E-1,1.2115326E-1,-6.958606E-1,-1.6405092E-1,1.37078E-1,-1.06551304E-1,-6.7979984E-2,6.2407423E-3],"categories":[],"categories_nodes":[],"categories_segments":[],"categories_sizes":[],"default_left":[0,0,0,0,0,0,0,0,0,0,0,0,0,0,0,0,0,0,0,0,0,0,0,0,0,0,0,0,0,0,0],"id":26,"left_children":[1,3,5,7,9,11,13,15,17,19,21,23,25,27,29,-1,-1,-1,-1,-1,-1,-1,-1,-1,-1,-1,-1,-1,-1,-1,-1],"loss_changes":[1.7994591E0,8.038323E0,4.7879047E0,6.929732E0,1.0712104E1,2.0070034E1,1.00683775E1,8.044488E0,1.6162724E1,7.2800903E0,7.607723E0,5.6167383E0,1.1911049E1,8.057938E0,5.492515E0,0E0,0E0,0E0,0E0,0E0,0E0,0E0,0E0,0E0,0E0,0E0,0E0,0E0,0E0,0E0,0E0],"parents":[2147483647,0,0,1,1,2,2,3,3,4,4,5,5,6,6,7,7,8,8,9,9,10,10,11,11,12,12,13,13,14,14],"right_children":[2,4,6,8,10,12,14,16,18,20,22,24,26,28,30,-1,-1,-1,-1,-1,-1,-1,-1,-1,-1,-1,-1,-1,-1,-1,-1],"split_conditions":[7.3560974E1,4.1354362E1,-1.2128444E0,6.642784E1,6.241379E1,-1.979398E0,-3.249883E-1,6.576382E1,-1.1670402E0,3.5035665E0,8.36856E1,4.460548E1,9.050279E1,4.068068E-1,6.290333E1,1.2756647E-3,3.3212754E-1,5.702636E-2,-1.9384025E-1,-6.745093E-2,2.5724858E-1,1.4546223E-1,-7.549187E-2,-2.822012E-1,1.2115326E-1,-6.958606E-1,-1.6405092E-1,1.37078E-1,-1.06551304E-1,-6.7979984E-2,6.2407423E-3],"split_indices":[3,3,0,4,4,0,0,4,0,0,4,1,3,2,1,0,0,0,0,0,0,0,0,0,0,0,0,0,0,0,0],"split_type":[0,0,0,0,0,0,0,0,0,0,0,0,0,0,0,0,0,0,0,0,0,0,0,0,0,0,0,0,0,0,0],"sum_hessian":[1.6130537E3,1.1321638E3,4.8088995E2,9.473526E2,1.8481116E2,4.179377E1,4.3909616E2,8.554421E2,9.191051E1,6.487752E1,1.1993364E2,2.4086184E1,1.7707588E1,7.759861E1,3.6149756E2,8.49776E2,5.666106E0,4.1041943E1,5.086857E1,5.893024E1,5.947279E0,1.0438854E2,1.5545096E1,2.6425853E0,2.1443598E1,5.0396557E0,1.26679325E1,6.3301723E1,1.42968855E1,1.616191E2,1.9987846E2],"tree_param":{"num_deleted":"0","num_feature":"6","num_nodes":"31","size_leaf_vector":"1"}},{"base_weights":[1.2423536E-3,-4.6879534E-2,2.3761423E-2,3.715336E-2,-4.203223E-1,2.006342E-1,-1.6297447E-2,-1.3246472E-1,1.2829746E-1,-6.9838893E-1,4.28862E-1,2.3538414E-1,-8.643669E-1,-1.6709343E-1,2.51443E-2,-2.3698296E-2,-4.1884136E-1,1.3570257E-1,7.0643593E-3,1.576109E-1,-2.8581947E-1,2.5487393E-1,-2.673533E-1,7.567139E-2,-3.6554295E-1,-3.8136432E-1,1.0385783E-1,2.2723217E-1,-6.342528E-2,9.058609E-3,-3.0775344E-1],"categories":[],"categories_nodes":[],"categories_segments":[],"categories_sizes":[],"default_left":[0,0,0,0,0,0,0,0,0,0,0,0,0,0,0,0,0,0,0,0,0,0,0,0,0,0,0,0,0,0,0],"id":27,"left_children":[1,3,5,7,9,11,13,15,17,19,21,23,25,27,29,-1,-1,-1,-1,-1,-1,-1,-1,-1,-1,-1,-1,-1,-1,-1,-1],"loss_changes":[1.7461354E0,1.6135408E1,7.780342E0,6.5137024E0,2.2598843E1,7.7075357E0,5.602691E0,9.847828E0,9.285077E0,2.2761993E1,1.4038601E1,5.137985E0,3.7010179E0,8.079674E0,3.7661598E0,0E0,0E0,0E0,0E0,0E0,0E0,0E0,0E0,0E0,0E0,0E0,0E0,0E0,0E0,0E0,0E0],"parents":[2147483647,0,0,1,1,2,2,3,3,4,4,5,5,6,6,7,7,8,8,9,9,10,10,11,11,12,12,13,13,14,14],"right_children":[2,4,6,8,10,12,14,16,18,20,22,24,26,28,30,-1,-1,-1,-1,-1,-1,-1,-1,-1,-1,-1,-1,-1,-1,-1,-1],"split_conditions":[-5.9743816E-1,-8.3449465E-1,-1.4597236E-1,-5.6243632E-2,2.0303215E-1,1.8440747E2,2.0784141E-1,-4.9650986E1,-3.9365185E1,-3.5857657E-1,8.4840333E-1,9.735294E1,5.419323E-1,3.375685E1,9.909883E1,-2.3698296E-2,-4.1884136E-1,1.3570257E-1,7.0643593E-3,1.576109E-1,-2.8581947E-1,2.5487393E-1,-2.673533E-1,7.567139E-2,-3.6554295E-1,-3.8136432E-1,1.0385783E-1,2.2723217E-1,-6.342528E-2,9.058609E-3,-3.0775344E-1],"split_indices":[0,0,0,2,2,3,0,3,3,2,5,4,2,1,4,0,0,0,0,0,0,0,0,0,0,0,0,0,0,0,0],"split_type":[0,0,0,0,0,0,0,0,0,0,0,0,0,0,0,0,0,0,0,0,0,0,0,0,0,0,0,0,0,0,0],"sum_hessian":[1.6093032E3,5.126721E2,1.0966311E3,4.192354E2,9.343674E1,2.0176506E2,8.94866E2,1.4637672E2,2.7285867E2,7.0521835E1,2.29149E1,1.9614406E2,5.621007E0,1.9225757E2,7.0260846E2,1.4145383E2,4.922891E0,6.58457E1,2.0701299E2,1.1951606E1,5.8570232E1,1.7646938E1,5.2679625E0,1.9471336E2,1.4307015E0,4.1695805E0,1.4514263E0,8.0595255E0,1.8419804E2,7.002145E2,2.393967E0],"tree_param":{"num_deleted":"0","num_feature":"6","num_nodes":"31","size_leaf_vector":"1"}},{"base_weights":[1.842765E-3,-2.5916138E-1,5.839233E-3,-4.2384028E-1,-6.118283E-2,3.8376555E-1,3.0983519E-3,2.9681885E-1,-4.0632367E-1,8.295024E-1,-2.0422164E-1,-4.3281913E-1,9.21355E-3,-1.5332022E-2,-5.569741E-1,4.084731E-2,2.827734E-1,-3.771263E-1,1.0771725E-1,-2.1787193E-2,-2.7714068E-1,9.310235E-2,5.892994E-4],"categories":[],"categories_nodes":[],"categories_segments":[],"categories_sizes":[],"default_left":[0,0,0,0,0,0,0,0,0,0,0,0,0,0,0,0,0,0,0,0,0,0,0],"id":28,"left_children":[1,3,5,-1,7,9,11,-1,13,15,17,19,21,-1,-1,-1,-1,-1,-1,-1,-1,-1,-1],"loss_changes":[1.6768613E0,5.450808E0,1.6384473E0,0E0,8.284231E0,3.1543112E0,4.1958323E0,0E0,8.6996155E0,3.950348E-1,3.8396893E0,3.7838507E0,3.3867104E0,0E0,0E0,0E0,0E0,0E0,0E0,0E0,0E0,0E0,0E0],"parents":[2147483647,0,0,1,1,2,2,4,4,5,5,6,6,8,8,9,9,10,10,11,11,12,12],"right_children":[2,4,6,-1,8,10,12,-1,14,16,18,20,22,-1,-1,-1,-1,-1,-1,-1,-1,-1,-1],"split_conditions":[2.212051E-1,3.7247707E1,-1.5130906E0,-4.2384028E-1,-1.3815285E-1,1.2022127E0,-1.0925568E0,2.9681885E-1,-4.0082836E-1,5.3001267E-1,3.784781E1,3.434177E1,-7.817902E-1,-1.5332022E-2,-5.569741E-1,4.084731E-2,2.827734E-1,-3.771263E-1,1.0771725E-1,-2.1787193E-2,-2.7714068E-1,9.310235E-2,5.892994E-4],"split_indices":[5,4,2,0,2,0,2,0,0,5,1,1,2,0,0,0,0,0,0,0,0,0,0],"split_type":[0,0,0,0,0,0,0,0,0,0,0,0,0,0,0,0,0,0,0,0,0,0,0],"sum_hessian":[1.6051322E3,2.3244076E1,1.5818881E3,2.50589E0,2.0738186E1,1.0388976E1,1.5714991E3,4.666652E0,1.6071533E1,5.675663E0,4.7133126E0,2.0775217E1,1.5507239E3,1.374111E1,2.3304226E0,1.1048979E0,4.5707655E0,1.2134444E0,3.4998684E0,1.2645868E1,8.129349E0,3.5471035E1,1.5152528E3],"tree_param":{"num_deleted":"0","num_feature":"6","num_nodes":"23","size_leaf_vector":"1"}},{"base_weights":[9.2638715E-4,5.9296177E-3,-1.8171607E-1,-6.1683976E-3,1.4976342E-1,2.998819E-1,-3.0271572E-1,-3.055518E-3,-7.7568305E-1,2.254844E-1,-6.159735E-1,-2.4179634E-1,6.9726497E-1,-3.7214577E-1,2.2397654E-1,-1.0884636E-2,1.5529516E-2,-5.897833E-1,2.579075E-1,1.8039614E-1,1.4963349E-2,-3.6516288E-1,9.5286794E-2,3.1483957E-1,9.359222E-2,-2.1188227E-2,-2.0614053E-1],"categories":[],"categories_nodes":[],"categories_segments":[],"categories_sizes":[],"default_left":[0,0,0,0,0,0,0,0,0,0,0,0,0,0,0,0,0,0,0,0,0,0,0,0,0,0,0],"id":29,"left_children":[1,3,5,7,9,11,13,15,17,19,21,-1,23,25,-1,-1,-1,-1,-1,-1,-1,-1,-1,-1,-1,-1,-1],"loss_changes":[1.465564E0,2.716993E0,2.582703E0,3.4487555E0,7.1628656E0,4.556175E0,2.803939E0,2.6174195E0,1.2981234E1,7.2939982E0,6.6559486E0,0E0,6.5268135E-1,3.1036224E0,0E0,0E0,0E0,0E0,0E0,0E0,0E0,0E0,0E0,0E0,0E0,0E0,0E0],"parents":[2147483647,0,0,1,1,2,2,3,3,4,4,5,5,6,6,7,7,8,8,9,9,10,10,12,12,13,13],"right_children":[2,4,6,8,10,12,14,16,18,20,22,-1,24,26,-1,-1,-1,-1,-1,-1,-1,-1,-1,-1,-1,-1,-1],"split_conditions":[4.049311E0,2.056633E0,4.2710608E-1,2.0082738E0,1.9678667E0,-5.565447E-1,2.5134187E0,9.5418924E-1,1.3893509E-1,2.4361243E0,2.9970784E0,-2.4179634E-1,5.4135338E1,6.1206898E1,2.2397654E-1,-1.0884636E-2,1.5529516E-2,-5.897833E-1,2.579075E-1,1.8039614E-1,1.4963349E-2,-3.6516288E-1,9.5286794E-2,3.1483957E-1,9.359222E-2,-2.1188227E-2,-2.0614053E-1],"split_indices":[0,0,5,0,5,2,5,5,2,0,0,0,4,4,0,0,0,0,0,0,0,0,0,0,0,0,0],"split_type":[0,0,0,0,0,0,0,0,0,0,0,0,0,0,0,0,0,0,0,0,0,0,0,0,0,0,0],"sum_hessian":[1.6016293E3,1.5598666E3,4.1762794E1,1.4397267E3,1.2013984E2,8.088982E0,3.3673813E1,1.434926E3,4.8006644E0,1.0997076E2,1.0169082E1,1.8664988E0,6.222483E0,3.2189262E1,1.4845494E0,8.9363464E2,5.412914E2,2.6614592E0,2.139205E0,3.424812E1,7.572263E1,6.0007873E0,4.1682944E0,2.3502548E0,3.8722284E0,1.7071793E1,1.5117471E1],"tree_param":{"num_deleted":"0","num_feature":"6","num_nodes":"27","size_leaf_vector":"1"}},{"base_weights":[8.7553944E-4,-3.611552E-1,3.4011942E-3,2.058808E-1,-5.9686834E-1,1.4700975E-1,-4.9052974E-3,1.392816E-1,-9.299088E-1,6.85568E-1,4.3087285E-3,-1.0102975E-2,4.03418E-1,-3.8285217E-1,1.9672379E-1,-6.511652E-2,3.0753177E-1,5.403211E-2,-6.963146E-2,-1.06638975E-1,-1.4592452E-3,-8.368042E-2,1.6495402E-1],"categories":[],"categories_nodes":[],"categories_segments":[],"categories_sizes":[],"default_left":[0,0,0,0,0,0,0,0,0,0,0,0,0,0,0,0,0,0,0,0,0,0,0],"id":30,"left_children":[1,3,5,-1,7,9,11,-1,13,15,17,19,21,-1,-1,-1,-1,-1,-1,-1,-1,-1,-1],"loss_changes":[1.4637654E0,3.147835E0,1.8967147E0,0E0,3.8202388E0,6.678591E0,3.1949642E0,0E0,5.0265975E0,5.80175E0,2.9400635E0,2.6860664E0,2.0439992E0,0E0,0E0,0E0,0E0,0E0,0E0,0E0,0E0,0E0,0E0],"parents":[2147483647,0,0,1,1,2,2,4,4,5,5,6,6,8,8,9,9,10,10,11,11,12,12],"right_children":[2,4,6,-1,8,10,12,-1,14,16,18,20,22,-1,-1,-1,-1,-1,-1,-1,-1,-1,-1],"split_conditions":[1.9819096E1,-1.3330152E0,-1.705446E2,2.058808E-1,-5.168399E0,7.7668244E-1,3.7468271E0,1.392816E-1,4.965326E1,3.403261E1,2.0547945E1,-1.5615953E2,4.074074E1,-3.8285217E-1,1.9672379E-1,-6.511652E-2,3.0753177E-1,5.403211E-2,-6.963146E-2,-1.06638975E-1,-1.4592452E-3,-8.368042E-2,1.6495402E-1],"split_indices":[1,2,3,0,0,5,5,0,4,1,4,3,4,0,0,0,0,0,0,0,0,0,0],"split_type":[0,0,0,0,0,0,0,0,0,0,0,0,0,0,0,0,0,0,0,0,0,0,0],"sum_hessian":[1.5985118E3,1.0090783E1,1.588421E3,1.5025465E0,8.588237E0,8.593951E1,1.5024816E3,1.957421E0,6.6308155E0,1.7204592E1,6.873491E1,1.4845594E3,1.7922173E1,5.602544E0,1.0282719E0,4.801385E0,1.2403207E1,3.9557747E1,2.9177166E1,2.1184086E1,1.4633754E3,3.0066004E0,1.4915573E1],"tree_param":{"num_deleted":"0","num_feature":"6","num_nodes":"23","size_leaf_vector":"1"}},{"base_weights":[1.2350305E-3,7.1900836E-3,-1.7221111E-1,1.2848842E-2,-2.4304922E-1,-1.1803845E0,-7.207575E-2,-1.3952092E-3,2.6280004E-1,-6.3928825E-1,4.4691437E-1,-4.9618477E-1,-1.0266731E-1,1.9470921E-1,-3.4444976E-1,1.6467691E-3,-9.9742964E-2,9.450971E-2,-3.146622E-1,1.6823792E-1,-2.667421E-1,2.2982241E-1,-1.3556814E-1,-1.6223028E-2,2.856551E-1,-2.578073E-1,8.67538E-2],"categories":[],"categories_nodes":[],"categories_segments":[],"categories_sizes":[],"default_left":[0,0,0,0,0,0,0,0,0,0,0,0,0,0,0,0,0,0,0,0,0,0,0,0,0,0,0],"id":31,"left_children":[1,3,5,7,9,11,13,15,17,19,21,-1,-1,23,25,-1,-1,-1,-1,-1,-1,-1,-1,-1,-1,-1,-1],"loss_changes":[1.652284E0,2.192873E0,5.2756014E0,5.3876257E0,9.648226E0,1.3124423E0,3.6543894E0,3.267058E0,5.9200315E0,7.144556E0,4.0987177E0,0E0,0E0,4.8717566E0,8.336226E0,0E0,0E0,0E0,0E0,0E0,0E0,0E0,0E0,0E0,0E0,0E0,0E0],"parents":[2147483647,0,0,1,1,2,2,3,3,4,4,5,5,6,6,7,7,8,8,9,9,10,10,13,13,14,14],"right_children":[2,4,6,8,10,12,14,16,18,20,22,-1,-1,24,26,-1,-1,-1,-1,-1,-1,-1,-1,-1,-1,-1,-1],"split_conditions":[2.0198676E2,7.7950186E-1,7.0997375E1,4.7765154E-1,1.540038E2,2.054557E0,4.2178684E-1,6.957733E1,9.574468E1,5.0651337E1,1.8019621E2,-4.9618477E-1,-1.0266731E-1,1.3347E0,7.450236E-1,1.6467691E-3,-9.9742964E-2,9.450971E-2,-3.146622E-1,1.6823792E-1,-2.667421E-1,2.2982241E-1,-1.3556814E-1,-1.6223028E-2,2.856551E-1,-2.578073E-1,8.67538E-2],"split_indices":[3,2,4,2,3,5,2,1,4,1,3,0,0,0,2,0,0,0,0,0,0,0,0,0,0,0,0],"split_type":[0,0,0,0,0,0,0,0,0,0,0,0,0,0,0,0,0,0,0,0,0,0,0,0,0,0,0],"sum_hessian":[1.5974861E3,1.5453857E3,5.2100315E1,1.5121398E3,3.3245953E1,3.732565E0,4.836775E1,1.4315538E3,8.0586006E1,2.1164719E1,1.2081234E1,1.7630972E0,1.9694679E0,2.4578619E1,2.378913E1,1.4033561E3,2.8197691E1,7.8230606E1,2.3554056E0,3.432647E0,1.773207E1,9.024409E0,3.0568252E0,1.9200867E1,5.377751E0,1.2927538E1,1.0861592E1],"tree_param":{"num_deleted":"0","num_feature":"6","num_nodes":"27","size_leaf_vector":"1"}},{"base_weights":[7.633505E-4,-1.8672609E-3,3.931415E-1,1.1342243E-2,-9.6808165E-2,6.471385E-1,-2.2547455E-1,-2.3404954E-3,3.4447417E-1,-1.433074E0,-5.875745E-2,9.2736495E-1,-1.6399202E-1,2.1704347E-3,-2.1042164E-1,1.958411E-1,-1.3091232E-2,-7.986957E-3,-5.809139E-1,-3.5075837E-1,-1.1085416E-2,5.476204E-2,3.054193E-1],"categories":[],"categories_nodes":[],"categories_segments":[],"categories_sizes":[],"default_left":[0,0,0,0,0,0,0,0,0,0,0,0,0,0,0,0,0,0,0,0,0,0,0],"id":32,"left_children":[1,3,5,7,9,11,-1,13,15,17,19,21,-1,-1,-1,-1,-1,-1,-1,-1,-1,-1,-1],"loss_changes":[1.6469201E0,1.9891514E0,3.5758874E0,6.348003E0,9.765822E0,3.5958188E0,0E0,8.964965E0,6.603448E0,3.7149506E0,4.5430355E0,3.4440184E-1,0E0,0E0,0E0,0E0,0E0,0E0,0E0,0E0,0E0,0E0,0E0],"parents":[2147483647,0,0,1,1,2,2,3,3,4,4,5,5,7,7,8,8,9,9,10,10,11,11],"right_children":[2,4,6,8,10,12,-1,14,16,18,20,22,-1,-1,-1,-1,-1,-1,-1,-1,-1,-1,-1],"split_conditions":[1.6343751E0,1.3088701E2,7.4287057E0,6.563991E1,1.3265967E2,9.125E1,-2.2547455E-1,6.9642115E-1,1.7088963E0,5.7078125E1,1.2877811E-2,4.461596E-1,-1.6399202E-1,2.1704347E-3,-2.1042164E-1,1.958411E-1,-1.3091232E-2,-7.986957E-3,-5.809139E-1,-3.5075837E-1,-1.1085416E-2,5.476204E-2,3.054193E-1],"split_indices":[2,3,0,1,3,4,0,2,0,1,2,5,0,0,0,0,0,0,0,0,0,0,0],"split_type":[0,0,0,0,0,0,0,0,0,0,0,0,0,0,0,0,0,0,0,0,0,0,0],"sum_hessian":[1.5938408E3,1.5842151E3,9.625773E0,1.3914918E3,1.9272325E2,8.233549E0,1.3922244E0,1.3375476E3,5.3944164E1,4.3208632E0,1.8840237E2,6.848992E0,1.3845576E0,1.3204507E3,1.7096912E1,2.9681858E1,2.4262308E1,1.4162242E0,2.904639E0,2.6150975E0,1.8578728E2,1.070512E0,5.77848E0],"tree_param":{"num_deleted":"0","num_feature":"6","num_nodes":"23","size_leaf_vector":"1"}},{"base_weights":[3.0667492E-4,-1.5168203E-3,4.9082953E-1,1.2501004E-3,-7.1230114E-1,2.3112047E-1,-1.2773672E-1,-1.6433967E-3,5.613735E-1,9.61734E-2,-3.3902735E-1,2.5387541E-3,-2.551641E-2,2.5330573E-1,-1.3071907E-1],"categories":[],"categories_nodes":[],"categories_segments":[],"categories_sizes":[],"default_left":[0,0,0,0,0,0,0,0,0,0,0,0,0,0,0],"id":33,"left_children":[1,3,5,7,9,-1,-1,11,13,-1,-1,-1,-1,-1,-1],"loss_changes":[1.4241921E0,3.1210277E0,1.8392248E0,2.5638294E0,3.017755E0,0E0,0E0,1.3276981E0,2.6618288E0,0E0,0E0,0E0,0E0,0E0,0E0],"parents":[2147483647,0,0,1,1,2,2,3,3,4,4,7,7,8,8],"right_children":[2,4,6,8,10,-1,-1,12,14,-1,-1,-1,-1,-1,-1],"split_conditions":[1.0375426E1,7.4287057E0,7.485688E1,1.6343751E0,-9.6917236E-1,2.3112047E-1,-1.2773672E-1,1.3704504E2,9.125E1,9.61734E-2,-3.3902735E-1,2.5387541E-3,-2.551641E-2,2.5330573E-1,-1.3071907E-1],"split_indices":[0,0,3,2,2,0,0,3,4,0,0,0,0,0,0],"split_type":[0,0,0,0,0,0,0,0,0,0,0,0,0,0,0],"sum_hessian":[1.5903938E3,1.5854967E3,4.8971004E0,1.580343E3,5.1536727E0,3.8747926E0,1.0223079E0,1.5732131E3,7.1298714E0,1.5512595E0,3.602413E0,1.4040057E3,1.6920737E2,5.67305E0,1.4568214E0],"tree_param":{"num_deleted":"0","num_feature":"6","num_nodes":"15","size_leaf_vector":"1"}},{"base_weights":[2.6181506E-4,-2.0416092E-2,4.749565E-2,6.809763E-4,-2.8159165E-1,4.5084202E-1,9.33452E-3,-8.889885E-2,3.4656357E-2,-1.1728077E0,-1.2254265E-1,-8.7698793E-1,6.219273E-1,-3.5668626E-1,3.5207875E-2,-1.9429112E-2,-4.1072547E-1,-1.3387554E-2,3.7679642E-2,-4.522917E-1,2.3026659E-1,2.4881472E-1,-7.732453E-2,1.9235557E-1,-4.614926E-1,2.6984093E-1,3.812686E-2,4.8572607E-2,-4.0681615E-1,5.42843E-2,-9.208291E-3],"categories":[],"categories_nodes":[],"categories_segments":[],"categories_sizes":[],"default_left":[0,0,0,0,0,0,0,0,0,0,0,0,0,0,0,0,0,0,0,0,0,0,0,0,0,0,0,0,0,0,0],"id":34,"left_children":[1,3,5,7,9,11,13,15,17,19,21,23,25,27,29,-1,-1,-1,-1,-1,-1,-1,-1,-1,-1,-1,-1,-1,-1,-1,-1],"loss_changes":[1.553071E0,6.094129E0,7.4481053E0,3.1205692E0,1.1573465E1,1.0047327E1,4.2110353E0,8.622754E0,5.365283E0,9.214386E0,9.385491E0,6.196107E0,5.0548134E0,1.5435602E1,3.9912276E0,0E0,0E0,0E0,0E0,0E0,0E0,0E0,0E0,0E0,0E0,0E0,0E0,0E0,0E0,0E0,0E0],"parents":[2147483647,0,0,1,1,2,2,3,3,4,4,5,5,6,6,7,7,8,8,9,9,10,10,11,11,12,12,13,13,14,14],"right_children":[2,4,6,8,10,12,14,16,18,20,22,24,26,28,30,-1,-1,-1,-1,-1,-1,-1,-1,-1,-1,-1,-1,-1,-1,-1,-1],"split_conditions":[7.268041E1,6.8283585E1,7.46789E1,5.2192384E-1,4.7955963E1,3.5533258E-1,4.9351532E1,8.231424E1,4.6124985E1,3.1465237E1,-1.3182142E0,-2.899492E0,2.4297315E-1,4.7666622E1,-2.1054138E-1,-1.9429112E-2,-4.1072547E-1,-1.3387554E-2,3.7679642E-2,-4.522917E-1,2.3026659E-1,2.4881472E-1,-7.732453E-2,1.9235557E-1,-4.614926E-1,2.6984093E-1,3.812686E-2,4.8572607E-2,-4.0681615E-1,5.42843E-2,-9.208291E-3],"split_indices":[4,4,4,5,1,5,1,3,1,3,0,0,2,1,0,0,0,0,0,0,0,0,0,0,0,0,0,0,0,0,0],"split_type":[0,0,0,0,0,0,0,0,0,0,0,0,0,0,0,0,0,0,0,0,0,0,0,0,0,0,0,0,0,0,0],"sum_hessian":[1.5881332E3,1.10497E3,4.8316318E2,1.0233073E3,8.166265E1,4.0826874E1,4.423363E2,2.8094592E2,7.423614E2,1.1401509E1,7.026115E1,4.189014E0,3.6637863E1,2.8359472E1,4.139768E2,2.7677844E2,4.1674733E0,3.9687994E2,3.4548148E2,9.913786E0,1.487723E0,8.099793E0,6.216135E1,1.2803051E0,2.9087088E0,2.2948761E1,1.36891E1,1.9222475E1,9.136998E0,1.2836267E2,2.8561414E2],"tree_param":{"num_deleted":"0","num_feature":"6","num_nodes":"31","size_leaf_vector":"1"}},{"base_weights":[6.922192E-4,3.987029E-1,-1.2516862E-3,6.2749493E-1,-1.2946595E-1,-3.6459446E-2,2.1213954E-2,1.9061065E-1,2.6697057E-1,-1.4589876E-2,-5.8440655E-1,1.4788173E-1,-1.4776957E-2,-8.3232045E-2,2.1059361E-1,-4.165597E-2,1.1797232E-2,-3.9188722E-1,-4.9740233E-2,-2.5902584E-1,5.861752E-2,2.837396E-1,-6.7422623E-3],"categories":[],"categories_nodes":[],"categories_segments":[],"categories_sizes":[],"default_left":[0,0,0,0,0,0,0,0,0,0,0,0,0,0,0,0,0,0,0,0,0,0,0],"id":35,"left_children":[1,3,5,7,-1,9,11,13,-1,15,17,19,21,-1,-1,-1,-1,-1,-1,-1,-1,-1,-1],"loss_changes":[1.2275703E0,1.735649E0,1.2499256E0,5.7016325E-1,0E0,7.3677974E0,4.4002805E0,1.0789181E0,0E0,3.9779325E0,6.9147015E0,1.0429278E1,5.5826926E0,0E0,0E0,0E0,0E0,0E0,0E0,0E0,0E0,0E0,0E0],"parents":[2147483647,0,0,1,1,2,2,3,3,5,5,6,6,7,7,9,9,10,10,11,11,12,12],"right_children":[2,4,6,8,-1,10,12,14,-1,16,18,20,22,-1,-1,-1,-1,-1,-1,-1,-1,-1,-1],"split_conditions":[-3.213263E2,6.333885E0,-5.2970033E-2,-5.163925E-1,-1.2946595E-1,5.8459923E1,3.754208E-2,6.818419E-1,2.6697057E-1,-5.9743816E-1,7.060129E-1,3.827576E1,3.3131252E1,-8.3232045E-2,2.1059361E-1,-4.165597E-2,1.1797232E-2,-3.9188722E-1,-4.9740233E-2,-2.5902584E-1,5.861752E-2,2.837396E-1,-6.7422623E-3],"split_indices":[3,5,2,2,0,1,2,0,0,0,5,1,1,0,0,0,0,0,0,0,0,0,0],"split_type":[0,0,0,0,0,0,0,0,0,0,0,0,0,0,0,0,0,0,0,0,0,0,0],"sum_hessian":[1.584988E3,6.711532E0,1.5782766E3,5.4530582E0,1.2584738E0,6.1454675E2,9.637298E2,2.6940677E0,2.7589908E0,5.919477E2,2.2599085E1,2.125532E2,7.5117664E2,1.6454533E0,1.0486143E0,1.7863841E2,4.1330923E2,7.51644E0,1.5082644E1,8.766902E0,2.037863E2,5.0026116E0,7.46174E2],"tree_param":{"num_deleted":"0","num_feature":"6","num_nodes":"23","size_leaf_vector":"1"}},{"base_weights":[7.32833E-4,5.4491427E-2,-1.849958E-2,8.423998E-2,-3.8558313E-1,-2.5792968E-1,3.4273677E-3,-4.7979164E-1,1.0422113E-1,-1.7453239E0,1.513335E-2,6.1879647E-1,-3.71988E-1,1.7764454E-1,-2.052117E-2,8.70297E-2,-6.118252E-1,5.2966336E-3,7.824613E-2,-6.4651024E-1,-5.356118E-2,5.7736166E-2,-3.8164917E-1,-2.0637852E-1,2.4770923E-1,-3.115887E-1,-1.0993883E-2,-1.1268809E-1,7.380496E-2,-4.145786E-1,-3.7247185E-3],"categories":[],"categories_nodes":[],"categories_segments":[],"categories_sizes":[],"default_left":[0,0,0,0,0,0,0,0,0,0,0,0,0,0,0,0,0,0,0,0,0,0,0,0,0,0,0,0,0,0,0],"id":36,"left_children":[1,3,5,7,9,11,13,15,17,19,21,23,25,27,29,-1,-1,-1,-1,-1,-1,-1,-1,-1,-1,-1,-1,-1,-1,-1,-1],"loss_changes":[1.6379789E0,5.497349E0,6.126824E0,4.465851E0,1.4525763E1,1.0020775E1,4.4677167E0,1.6902636E1,5.136406E0,3.5090084E0,5.162764E0,3.7168083E0,1.9469448E1,4.9876704E0,1.037252E1,0E0,0E0,0E0,0E0,0E0,0E0,0E0,0E0,0E0,0E0,0E0,0E0,0E0,0E0,0E0,0E0],"parents":[2147483647,0,0,1,1,2,2,3,3,4,4,5,5,6,6,7,7,8,8,9,9,10,10,11,11,12,12,13,13,14,14],"right_children":[2,4,6,8,10,12,14,16,18,20,22,24,26,28,30,-1,-1,-1,-1,-1,-1,-1,-1,-1,-1,-1,-1,-1,-1,-1,-1],"split_conditions":[-8.3449465E-1,5.4784218E1,-5.9743816E-1,9.865471E0,1.0521059E2,1.8085106E1,-2.7716193E-1,7.423823E0,8.2792073E-1,1.125087E0,6.30977E1,5.6603775E0,4.3812748E1,3.6985955E-1,-2.6824135E-1,8.70297E-2,-6.118252E-1,5.2966336E-3,7.824613E-2,-6.4651024E-1,-5.356118E-2,5.7736166E-2,-3.8164917E-1,-2.0637852E-1,2.4770923E-1,-3.115887E-1,-1.0993883E-2,-1.1268809E-1,7.380496E-2,-4.145786E-1,-3.7247185E-3],"split_indices":[0,1,0,4,3,4,0,4,5,5,1,4,1,5,0,0,0,0,0,0,0,0,0,0,0,0,0,0,0,0,0],"split_type":[0,0,0,0,0,0,0,0,0,0,0,0,0,0,0,0,0,0,0,0,0,0,0,0,0,0,0,0,0,0,0],"sum_hessian":[1.5822859E3,4.1643372E2,1.1658522E3,3.908231E2,2.5610632E1,9.690795E1,1.0689442E3,1.2584114E1,3.7823895E2,5.0657263E0,2.0544905E1,1.0646534E1,8.626142E1,1.2840746E2,9.4053674E2,8.970117E0,3.6139972E0,2.4430414E2,1.3393483E2,3.7180252E0,1.3477012E0,1.8805073E1,1.739833E0,1.1375008E0,9.509033E0,2.816792E1,5.80935E1,1.362874E1,1.1477872E2,4.563406E0,9.359733E2],"tree_param":{"num_deleted":"0","num_feature":"6","num_nodes":"31","size_leaf_vector":"1"}},{"base_weights":[8.172568E-5,9.1857746E-2,-8.721912E-3,1.2685822E-1,-1.3021557E0,-1.1429196E-1,1.2411502E-2,-4.451085E-2,5.1672256E-1,-5.3618914E-1,-6.231242E-2,-8.159486E-2,-6.8325275E-1,7.550782E-1,6.1162803E-3,2.4919922E-2,-2.8007555E-1,2.9981548E-1,1.1263625E-1,-4.5505263E-2,7.3519856E-2,-3.5503203E-1,1.21848986E-1,2.695856E-1,-4.1223675E-2,1.825963E-2,-1.6590064E-2],"categories":[],"categories_nodes":[],"categories_segments":[],"categories_sizes":[],"default_left":[0,0,0,0,0,0,0,0,0,0,0,0,0,0,0,0,0,0,0,0,0,0,0,0,0,0,0],"id":37,"left_children":[1,3,5,7,9,11,13,15,17,-1,-1,19,21,23,25,-1,-1,-1,-1,-1,-1,-1,-1,-1,-1,-1,-1],"loss_changes":[1.2753161E0,6.906109E0,3.214772E0,9.088279E0,1.4726133E0,4.41518E0,5.610148E0,1.0872933E1,2.4551458E0,0E0,0E0,5.2665873E0,7.5236964E0,1.4156065E0,4.011025E0,0E0,0E0,0E0,0E0,0E0,0E0,0E0,0E0,0E0,0E0,0E0,0E0],"parents":[2147483647,0,0,1,1,2,2,3,3,4,4,5,5,6,6,7,7,8,8,11,11,12,12,13,13,14,14],"right_children":[2,4,6,8,10,12,14,16,18,-1,-1,20,22,24,26,-1,-1,-1,-1,-1,-1,-1,-1,-1,-1,-1,-1],"split_conditions":[3.434177E1,5.6176155E1,-2.4397954E-1,-1.1147281E2,5.925926E1,2.0986934E0,-1.9247906E2,-1.7294185E-1,2.6082249E1,-5.3618914E-1,-6.231242E-2,1.1550514E0,2.9867313E0,4.1666668E1,7.882898E-1,2.4919922E-2,-2.8007555E-1,2.9981548E-1,1.1263625E-1,-4.5505263E-2,7.3519856E-2,-3.5503203E-1,1.21848986E-1,2.695856E-1,-4.1223675E-2,1.825963E-2,-1.6590064E-2],"split_indices":[1,4,2,3,4,5,3,2,1,0,0,5,5,4,5,0,0,0,0,0,0,0,0,0,0,0,0],"split_type":[0,0,0,0,0,0,0,0,0,0,0,0,0,0,0,0,0,0,0,0,0,0,0,0,0,0,0],"sum_hessian":[1.5764426E3,1.371587E2,1.4392839E3,1.3468605E2,2.4726593E0,2.3932909E2,1.1999548E3,9.4175865E1,4.0510185E1,1.2746017E0,1.1980577E0,2.2740402E2,1.1925068E1,9.086175E0,1.1908687E3,8.315076E1,1.10251045E1,7.7968473E0,3.2713337E1,1.8767218E2,3.973184E1,8.113556E0,3.811512E0,7.8213844E0,1.2647905E0,6.296141E2,5.612545E2],"tree_param":{"num_deleted":"0","num_feature":"6","num_nodes":"27","size_leaf_vector":"1"}},{"base_weights":[4.776727E-4,-1.0299133E-2,8.787293E-2,-2.1813845E-2,1.5331472E-1,-7.544332E-1,1.126486E-1,-1.1448599E-2,-2.2840475E-1,5.647946E-2,7.033358E-1,-1.1915044E0,1.0841005E-1,9.5382315E-1,8.199768E-2,-7.17223E-3,4.835886E-2,-2.6178706E-1,-3.9461277E-2,5.166434E-2,-2.478585E-1,3.1617215E-1,5.340683E-2,-1.1628153E-1,-4.2377374E-1,3.29623E-1,4.653389E-2,9.240731E-2,-6.2065427E-3],"categories":[],"categories_nodes":[],"categories_segments":[],"categories_sizes":[],"default_left":[0,0,0,0,0,0,0,0,0,0,0,0,0,0,0,0,0,0,0,0,0,0,0,0,0,0,0,0,0],"id":38,"left_children":[1,3,5,7,9,11,13,15,17,19,21,23,-1,25,27,-1,-1,-1,-1,-1,-1,-1,-1,-1,-1,-1,-1,-1,-1],"loss_changes":[1.4845839E0,2.6470444E0,3.6959462E0,2.806586E0,4.881055E0,2.905118E0,4.2780037E0,2.693084E0,3.7931206E0,8.278593E0,2.3433733E0,1.4179516E-1,0E0,5.062461E-1,3.815387E0,0E0,0E0,0E0,0E0,0E0,0E0,0E0,0E0,0E0,0E0,0E0,0E0,0E0,0E0],"parents":[2147483647,0,0,1,1,2,2,3,3,4,4,5,5,6,6,7,7,8,8,9,9,10,10,11,11,13,13,14,14],"right_children":[2,4,6,8,10,12,14,16,18,20,22,24,-1,26,28,-1,-1,-1,-1,-1,-1,-1,-1,-1,-1,-1,-1,-1,-1],"split_conditions":[1.9103364E0,2.314852E0,3.9494694E1,1.7976165E0,8.939828E1,2.8717672E1,4.2675587E1,6.5019424E1,1.6077171E1,8.115616E1,6.9235985E1,-2.1785489E2,1.0841005E-1,1.8085106E1,2.4361243E0,-7.17223E-3,4.835886E-2,-2.6178706E-1,-3.9461277E-2,5.166434E-2,-2.478585E-1,3.1617215E-1,5.340683E-2,-1.1628153E-1,-4.2377374E-1,3.29623E-1,4.653389E-2,9.240731E-2,-6.2065427E-3],"split_indices":[0,5,1,5,4,4,1,1,4,4,1,3,0,4,0,0,0,0,0,0,0,0,0,0,0,0,0,0,0],"split_type":[0,0,0,0,0,0,0,0,0,0,0,0,0,0,0,0,0,0,0,0,0,0,0,0,0,0,0,0,0],"sum_hessian":[1.5742952E3,1.4022628E3,1.7203242E2,1.3108737E3,9.138916E1,4.0740795E0,1.6795834E2,1.2492506E3,6.1623005E1,7.864569E1,1.2743466E1,2.8786378E0,1.1954416E0,4.846045E0,1.6311229E2,1.1659705E3,8.32802E1,7.007944E0,5.461506E1,7.024072E1,8.404968E0,7.0394163E0,5.7040505E0,1.2147369E0,1.6639009E0,3.7838464E0,1.0621988E0,5.0329758E1,1.1278254E2],"tree_param":{"num_deleted":"0","num_feature":"6","num_nodes":"29","size_leaf_vector":"1"}},{"base_weights":[6.982732E-4,-8.725683E-4,4.559366E-1,1.1951457E-3,-5.8878446E-1,2.2454038E-1,-1.1566327E-1,-1.0859428E-3,4.929263E-1,8.203306E-2,-3.0296248E-1,1.0111957E-1,-9.881307E-4,2.2771434E-1,-9.134799E-2],"categories":[],"categories_nodes":[],"categories_segments":[],"categories_sizes":[],"default_left":[0,0,0,0,0,0,0,0,0,0,0,0,0,0,0],"id":39,"left_children":[1,3,5,7,9,-1,-1,11,13,-1,-1,-1,-1,-1,-1],"loss_changes":[1.1259471E0,1.9086949E0,1.6213545E0,1.7560146E0,2.2740936E0,0E0,0E0,1.1648872E0,1.7651391E0,0E0,0E0,0E0,0E0,0E0,0E0],"parents":[2147483647,0,0,1,1,2,2,3,3,4,4,7,7,8,8],"right_children":[2,4,6,8,10,-1,-1,12,14,-1,-1,-1,-1,-1,-1],"split_conditions":[1.0375426E1,7.4287057E0,6.455804E1,1.6343751E0,-9.6917236E-1,2.2454038E-1,-1.1566327E-1,-1.5130906E0,9.125E1,8.203306E-2,-3.0296248E-1,1.0111957E-1,-9.881307E-4,2.2771434E-1,-9.134799E-2],"split_indices":[0,0,1,2,2,0,0,2,4,0,0,0,0,0,0],"split_type":[0,0,0,0,0,0,0,0,0,0,0,0,0,0,0],"sum_hessian":[1.5729589E3,1.5685446E3,4.414323E0,1.5640416E3,4.502841E0,3.3576193E0,1.0567038E0,1.557813E3,6.228737E0,1.5925514E0,2.9102898E0,9.121318E0,1.5486917E3,4.7062483E0,1.5224885E0],"tree_param":{"num_deleted":"0","num_feature":"6","num_nodes":"15","size_leaf_vector":"1"}},{"base_weights":[6.281934E-4,-1.3067777E-2,4.9602218E-2,-4.5688315E-3,-4.530882E-1,5.0469923E-1,1.0284963E-2,-1.14697125E-2,5.666557E-1,-1.0219136E0,-1.2447774E-2,6.422601E-1,-4.4035113E-1,-8.7513715E-1,2.0573342E-2,-7.0576096E-4,-9.328768E-2,2.6965612E-1,-2.3289993E-2,-5.9362954E-1,-1.3971108E-1,2.5938544E-1,-1.4808242E-1,2.1900749E-1,-1.9213934E-1,-3.9992043E-1,1.3843435E-1,-1.0150142E-1,-3.2462615E-1,3.0330902E-1,2.7051405E-3],"categories":[],"categories_nodes":[],"categories_segments":[],"categories_sizes":[],"default_left":[0,0,0,0,0,0,0,0,0,0,0,0,0,0,0,0,0,0,0,0,0,0,0,0,0,0,0,0,0,0,0],"id":40,"left_children":[1,3,5,7,9,11,13,15,17,19,21,23,25,27,29,-1,-1,-1,-1,-1,-1,-1,-1,-1,-1,-1,-1,-1,-1,-1,-1],"loss_changes":[1.055444E0,4.5966125E0,6.147902E0,4.7660074E0,5.8251286E0,3.8351865E0,2.9107814E0,3.2593887E0,3.158712E0,4.48277E0,6.3925805E0,3.19872E0,3.8879442E0,4.164481E-2,3.595016E0,0E0,0E0,0E0,0E0,0E0,0E0,0E0,0E0,0E0,0E0,0E0,0E0,0E0,0E0,0E0,0E0],"parents":[2147483647,0,0,1,1,2,2,3,3,4,4,5,5,6,6,7,7,8,8,9,9,10,10,11,11,12,12,13,13,14,14],"right_children":[2,4,6,8,10,12,14,16,18,20,22,24,26,28,30,-1,-1,-1,-1,-1,-1,-1,-1,-1,-1,-1,-1,-1,-1,-1,-1],"split_conditions":[7.956989E1,7.83105E1,8.058394E1,7.764227E1,-9.056708E-2,6.7928055E1,4.4538376E1,7.590909E1,3.146612E-1,1.917403E-1,2.884958E-1,6.620432E-1,7.2646195E-1,-3.777022E0,4.6679058E1,-7.0576096E-4,-9.328768E-2,2.6965612E-1,-2.3289993E-2,-5.9362954E-1,-1.3971108E-1,2.5938544E-1,-1.4808242E-1,2.1900749E-1,-1.9213934E-1,-3.9992043E-1,1.3843435E-1,-1.0150142E-1,-3.2462615E-1,3.0330902E-1,2.7051405E-3],"split_indices":[4,4,4,4,0,1,1,4,2,2,0,2,2,0,1,0,0,0,0,0,0,0,0,0,0,0,0,0,0,0,0],"split_type":[0,0,0,0,0,0,0,0,0,0,0,0,0,0,0,0,0,0,0,0,0,0,0,0,0,0,0,0,0,0,0],"sum_hessian":[1.5715692E3,1.2286897E3,3.4287952E2,1.2063986E3,2.2291073E1,2.6325495E1,3.1655402E2,1.1929664E3,1.3432135E1,9.154419E0,1.3136653E1,2.326016E1,3.0653362E0,2.6704824E0,3.1388354E2,1.1587007E3,3.4265797E1,8.601868E0,4.8302674E0,2.4250336E0,6.729386E0,4.371421E0,8.765232E0,2.2173885E1,1.0862733E0,1.3000988E0,1.7652373E0,1.4762295E0,1.1942528E0,2.6225505E0,3.11261E2],"tree_param":{"num_deleted":"0","num_feature":"6","num_nodes":"31","size_leaf_vector":"1"}},{"base_weights":[3.9798024E-4,2.969188E-2,-2.337801E-2,5.5961674E-1,2.2379996E-2,-3.2802486E-1,-9.3840705E-3,2.9468748E-1,-1.963685E-1,-1.9357687E-1,4.1997276E-2,3.6020344E-1,-6.1892956E-1,-4.4718596E-1,-2.6437356E-3,-2.4948621E-2,-4.2318833E-1,2.1724294E-1,1.0351958E-2,-2.0618531E-1,2.1875352E-1,-2.5182053E-1,2.9969555E-1,-2.6062414E-1,2.5049415E-1,2.2087409E-1,-3.8556242E-3],"categories":[],"categories_nodes":[],"categories_segments":[],"categories_sizes":[],"default_left":[0,0,0,0,0,0,0,0,0,0,0,0,0,0,0,0,0,0,0,0,0,0,0,0,0,0,0],"id":41,"left_children":[1,3,5,7,9,11,13,-1,-1,15,17,19,21,23,25,-1,-1,-1,-1,-1,-1,-1,-1,-1,-1,-1,-1],"loss_changes":[1.0944325E0,2.7152185E0,3.6947222E0,5.5387287E0,2.95435E0,7.8436046E0,2.4490094E0,0E0,0E0,7.688921E0,3.2368379E0,5.1163E0,1.0513318E1,7.5269575E0,6.1850023E0,0E0,0E0,0E0,0E0,0E0,0E0,0E0,0E0,0E0,0E0,0E0,0E0],"parents":[2147483647,0,0,1,1,2,2,3,3,4,4,5,5,6,6,9,9,10,10,11,11,12,12,13,13,14,14],"right_children":[2,4,6,8,10,12,14,-1,-1,16,18,20,22,24,26,-1,-1,-1,-1,-1,-1,-1,-1,-1,-1,-1,-1],"split_conditions":[-1.3974194E-1,-2.7932153E2,-5.9338395E-2,2.7578215E1,3.084646E1,4.228134E1,-2.2500758E2,2.9468748E-1,-1.963685E-1,-6.1436903E-1,3.1250868E1,1.2537313E1,6.367466E1,-3.5857657E-1,3.4480484E1,-2.4948621E-2,-4.2318833E-1,2.1724294E-1,1.0351958E-2,-2.0618531E-1,2.1875352E-1,-2.5182053E-1,2.9969555E-1,-2.6062414E-1,2.5049415E-1,2.2087409E-1,-3.8556242E-3],"split_indices":[0,3,0,4,1,1,3,0,0,0,1,4,1,2,1,0,0,0,0,0,0,0,0,0,0,0,0],"split_type":[0,0,0,0,0,0,0,0,0,0,0,0,0,0,0,0,0,0,0,0,0,0,0,0,0,0,0],"sum_hessian":[1.5693541E3,7.0297925E2,8.663749E2,8.53962E0,6.9443964E2,3.7063572E1,8.293113E2,6.4761515E0,2.063469E0,5.709054E1,6.3734906E2,1.0940973E1,2.6122597E1,1.158358E1,8.177277E2,5.3321384E1,3.7691586E0,5.8836355E0,6.3146545E2,2.625297E0,8.315676E0,2.3413269E1,2.7093277E0,8.960057E0,2.6235223E0,1.0174366E1,8.0755334E2],"tree_param":{"num_deleted":"0","num_feature":"6","num_nodes":"27","size_leaf_vector":"1"}},{"base_weights":[1.1054877E-3,6.4374954E-3,-1.1947146E-1,-8.333427E-3,1.3958246E-1,-3.9183107E-1,2.007534E-1,-2.3729673E-3,-4.58694E-1,2.8208753E-1,-3.7815366E-2,2.5386855E-1,-5.3842336E-1,4.079395E-1,-6.295559E-1,4.2353566E-3,-2.681841E-2,1.18540265E-2,-3.6735266E-1,9.780844E-2,-2.361334E-1,-4.1980574E-1,2.5601005E-2,1.5572911E-3,-2.3662621E-1,2.0061293E-1,1.3774957E-2,-2.864417E-1,1.7485399E-2],"categories":[],"categories_nodes":[],"categories_segments":[],"categories_sizes":[],"default_left":[0,0,0,0,0,0,0,0,0,0,0,0,0,0,0,0,0,0,0,0,0,0,0,0,0,0,0,0,0],"id":42,"left_children":[1,3,5,7,9,11,13,15,17,19,21,-1,23,25,27,-1,-1,-1,-1,-1,-1,-1,-1,-1,-1,-1,-1,-1,-1],"loss_changes":[1.0092092E0,2.9571967E0,5.876433E0,3.6332872E0,3.8065374E0,7.0367126E0,5.6265817E0,1.9202675E0,6.793747E0,4.174069E0,1.1482703E1,0E0,4.4994135E0,2.3848982E0,1.5381653E0,0E0,0E0,0E0,0E0,0E0,0E0,0E0,0E0,0E0,0E0,0E0,0E0,0E0,0E0],"parents":[2147483647,0,0,1,1,2,2,3,3,4,4,5,5,6,6,7,7,8,8,9,9,10,10,12,12,13,13,14,14],"right_children":[2,4,6,8,10,12,14,16,18,20,22,-1,24,26,28,-1,-1,-1,-1,-1,-1,-1,-1,-1,-1,-1,-1,-1,-1],"split_conditions":[9.3702774E1,8.6387436E1,1.540038E2,8.542056E1,1.3431226E2,5.8862112E-2,1.1798792E0,8.417804E1,6.358088E-1,7.7950186E-1,-1.1670402E0,2.5386855E-1,-5.55281E-1,1.8019621E2,1.680504E0,4.2353566E-3,-2.681841E-2,1.18540265E-2,-3.6735266E-1,9.780844E-2,-2.361334E-1,-4.1980574E-1,2.5601005E-2,1.5572911E-3,-2.3662621E-1,2.0061293E-1,1.3774957E-2,-2.864417E-1,1.7485399E-2],"split_indices":[4,4,3,4,3,2,0,3,0,2,0,0,0,3,5,0,0,0,0,0,0,0,0,0,0,0,0,0,0],"split_type":[0,0,0,0,0,0,0,0,0,0,0,0,0,0,0,0,0,0,0,0,0,0,0,0,0,0,0,0,0],"sum_hessian":[1.5675381E3,1.5020623E3,6.547577E1,1.3529098E3,1.4915256E2,3.5261406E1,3.021436E1,1.3362302E3,1.667955E1,8.238328E1,6.676929E1,3.227826E0,3.203358E1,2.4587708E1,5.626652E0,1.1240566E3,2.121736E2,1.0679994E1,5.9995575E0,7.9798874E1,2.584401E0,4.678807E0,6.2090477E1,1.040894E1,2.1624641E1,1.3800132E1,1.0787577E1,3.5567155E0,2.0699363E0],"tree_param":{"num_deleted":"0","num_feature":"6","num_nodes":"29","size_leaf_vector":"1"}},{"base_weights":[6.226319E-4,-8.990387E-3,7.986047E-2,2.4049895E-1,-1.1009637E-2,-9.523734E-2,1.9365616E-1,4.6118256E-3,-1.1825148E-1,1.1318305E-2,-1.1407105E0,4.852113E-1,2.1605017E-2,1.2271236E-4,1.7364448E-1,-4.8285207E-1,-2.4761317E-2,-6.961061E-2,1.17170766E-1,-3.9157894E-1,-5.7655152E-2,-4.128583E-2,2.0211177E-1,2.4952974E-2,-2.7885202E-1],"categories":[],"categories_nodes":[],"categories_segments":[],"categories_sizes":[],"default_left":[0,0,0,0,0,0,0,0,0,0,0,0,0,0,0,0,0,0,0,0,0,0,0,0,0],"id":43,"left_children":[1,3,5,-1,7,9,11,13,15,17,19,21,23,-1,-1,-1,-1,-1,-1,-1,-1,-1,-1,-1,-1],"loss_changes":[1.1929078E0,2.295103E0,3.394557E0,0E0,2.3362417E0,7.5227065E0,5.15753E0,2.938891E0,9.3101425E0,5.8281665E0,7.238922E-1,4.575963E0,3.9328752E0,0E0,0E0,0E0,0E0,0E0,0E0,0E0,0E0,0E0,0E0,0E0,0E0],"parents":[2147483647,0,0,1,1,2,2,4,4,5,5,6,6,7,7,8,8,9,9,10,10,11,11,12,12],"right_children":[2,4,6,-1,8,10,12,14,16,18,20,22,24,-1,-1,-1,-1,-1,-1,-1,-1,-1,-1,-1,-1],"split_conditions":[1.9103364E0,-1.8694446E0,5.283019E1,2.4049895E-1,1.1105167E0,5.727569E1,6.0987785E1,1.092932E0,3.8473892E1,-1.746136E1,6.553681E-4,-1.9398741E-1,9.3702774E1,1.2271236E-4,1.7364448E-1,-4.8285207E-1,-2.4761317E-2,-6.961061E-2,1.17170766E-1,-3.9157894E-1,-5.7655152E-2,-4.128583E-2,2.0211177E-1,2.4952974E-2,-2.7885202E-1],"split_indices":[0,2,4,0,0,1,1,0,1,3,2,2,4,0,0,0,0,0,0,0,0,0,0,0,0],"split_type":[0,0,0,0,0,0,0,0,0,0,0,0,0,0,0,0,0,0,0,0,0,0,0,0,0],"sum_hessian":[1.564139E3,1.3957012E3,1.684379E2,2.4839342E0,1.3932173E3,6.641224E1,1.0202565E2,1.2169119E3,1.7630537E2,6.1167194E1,5.245046E0,3.718774E1,6.483791E1,1.2090631E3,7.8488245E0,3.0928814E0,1.732125E2,3.7495598E1,2.36716E1,4.149147E0,1.095899E0,8.702502E0,2.8485237E1,6.1752804E1,3.0851066E0],"tree_param":{"num_deleted":"0","num_feature":"6","num_nodes":"25","size_leaf_vector":"1"}},{"base_weights":[3.0952942E-4,-1.47889685E-2,4.99824E-2,-2.935835E-3,-4.8632565E-1,5.703411E-1,3.7077706E-2,2.6190382E-1,-1.2839301E-2,-7.9581416E-1,4.5744467E-1,-2.3891528E-1,9.239267E-1,1.10403515E-1,-6.3604504E-2,-1.10429935E-2,2.4905005E-1,-1.12379245E-1,-1.4999503E-3,-1.0642623E-1,-4.7405878E-1,2.9435417E-1,-3.372055E-1,3.096019E-1,3.862566E-2,4.182209E-2,-2.6324448E-1,-3.3626673E-1,4.363373E-3],"categories":[],"categories_nodes":[],"categories_segments":[],"categories_sizes":[],"default_left":[0,0,0,0,0,0,0,0,0,0,0,0,0,0,0,0,0,0,0,0,0,0,0,0,0,0,0,0,0],"id":44,"left_children":[1,3,5,7,9,11,13,15,17,19,21,-1,23,25,27,-1,-1,-1,-1,-1,-1,-1,-1,-1,-1,-1,-1,-1,-1],"loss_changes":[1.1720953E0,6.6974263E0,2.4251513E0,3.072481E0,8.946438E0,4.962505E0,2.6393156E0,7.1984158E0,3.199758E0,7.2207527E0,7.638789E0,0E0,5.0409317E-1,6.043844E0,1.2483193E1,0E0,0E0,0E0,0E0,0E0,0E0,0E0,0E0,0E0,0E0,0E0,0E0,0E0,0E0],"parents":[2147483647,0,0,1,1,2,2,3,3,4,4,5,5,6,6,7,7,8,8,9,9,10,10,12,12,13,13,14,14],"right_children":[2,4,6,8,10,12,14,16,18,20,22,-1,24,26,28,-1,-1,-1,-1,-1,-1,-1,-1,-1,-1,-1,-1,-1,-1],"split_conditions":[1.2607592E0,1.1897008E0,1.2761817E0,-7.817902E-1,6.1423435E1,-2.2986686E-1,6.1642376E1,-9.124592E-1,-6.147458E-1,3.1007906E-2,2.8578073E-1,-2.3891528E-1,8.144989E1,2.9108E-1,7.821149E1,-1.10429935E-2,2.4905005E-1,-1.12379245E-1,-1.4999503E-3,-1.0642623E-1,-4.7405878E-1,2.9435417E-1,-3.372055E-1,3.096019E-1,3.862566E-2,4.182209E-2,-2.6324448E-1,-3.3626673E-1,4.363373E-3],"split_indices":[5,5,5,2,1,2,3,2,2,2,2,0,4,2,3,0,0,0,0,0,0,0,0,0,0,0,0,0,0],"split_type":[0,0,0,0,0,0,0,0,0,0,0,0,0,0,0,0,0,0,0,0,0,0,0,0,0,0,0,0,0],"sum_hessian":[1.5608379E3,1.1975381E3,3.632998E2,1.169155E3,2.838311E1,7.7463326E0,3.5555347E2,4.122646E1,1.1279286E3,2.1492044E1,6.891066E0,1.3347547E0,6.411578E0,2.0566975E2,1.4988371E2,2.7635023E1,1.3591435E1,2.2931967E1,1.1049966E3,1.4686216E1,6.8058276E0,5.461835E0,1.4292314E0,5.3821974E0,1.0293806E0,2.0063808E2,5.0316777E0,9.39776E0,1.4048595E2],"tree_param":{"num_deleted":"0","num_feature":"6","num_nodes":"29","size_leaf_vector":"1"}},{"base_weights":[3.7001635E-4,-2.3221537E-1,3.6003194E-3,-4.2386672E-1,2.4395104E-1,1.0948746E-1,-6.7530577E-3,-5.497369E-1,-8.583882E-2,3.9395088E-1,-9.6738465E-2,-1.808247E-1,7.429798E-3,3.6276817E-2,-2.3306605E-1,-1.1462721E-1,1.5591198E-1,1.1641377E-2,-2.1545942E-1,-2.672492E-1,-1.722414E-2,-2.593661E-1,2.9278484E-3],"categories":[],"categories_nodes":[],"categories_segments":[],"categories_sizes":[],"default_left":[0,0,0,0,0,0,0,0,0,0,0,0,0,0,0,0,0,0,0,0,0,0,0],"id":45,"left_children":[1,3,5,7,-1,9,11,-1,13,15,17,19,21,-1,-1,-1,-1,-1,-1,-1,-1,-1,-1],"loss_changes":[1.1728061E0,4.628779E0,1.6884723E0,8.759739E0,0E0,8.085529E0,3.4658985E0,0E0,2.4018307E0,5.844289E0,6.7942953E0,9.21612E0,2.6463914E0,0E0,0E0,0E0,0E0,0E0,0E0,0E0,0E0,0E0,0E0],"parents":[2147483647,0,0,1,1,2,2,3,3,5,5,6,6,8,8,9,9,10,10,11,11,12,12],"right_children":[2,4,6,8,-1,10,12,-1,14,16,18,20,22,-1,-1,-1,-1,-1,-1,-1,-1,-1,-1],"split_conditions":[2.4083326E1,-1.1147281E2,-4.8316473E-1,7.060129E-1,2.4395104E-1,1.9366198E1,1.9366198E1,-5.497369E-1,2.7578215E1,-2.0720975E2,1.1156734E0,5.260379E-1,-4.7037455E-1,3.6276817E-2,-2.3306605E-1,-1.1462721E-1,1.5591198E-1,1.1641377E-2,-2.1545942E-1,-2.672492E-1,-1.722414E-2,-2.593661E-1,2.9278484E-3],"split_indices":[1,3,2,5,0,4,4,0,4,3,5,5,2,0,0,0,0,0,0,0,0,0,0],"split_type":[0,0,0,0,0,0,0,0,0,0,0,0,0,0,0,0,0,0,0,0,0,0,0],"sum_hessian":[1.5588788E3,2.0383146E1,1.5384956E3,1.7727655E1,2.6554897E0,1.3617877E2,1.4023169E3,2.5752711E0,1.5152385E1,5.6850365E1,7.9328415E1,1.0476358E2,1.2975533E3,1.2297876E1,2.8545089E0,7.6435394E0,4.9206825E1,6.5894165E1,1.3434246E1,1.4592396E1,9.017119E1,2.4712892E0,1.295082E3],"tree_param":{"num_deleted":"0","num_feature":"6","num_nodes":"23","size_leaf_vector":"1"}},{"base_weights":[-8.788322E-5,1.8938604E-1,-3.9244294E-3,3.2419693E-1,-4.5089358E-1,-3.544833E-1,-6.122522E-4,5.964187E-1,-3.0032337E-1,-4.7602117E-1,5.9271854E-1,-6.1502063E-1,2.249924E-1,4.086978E-1,-3.7244153E-3,2.454778E-2,2.602085E-1,-2.57749E-1,9.3908556E-2,-6.6601895E-2,2.9891938E-1,6.530323E-2,-3.3994246E-1,2.714975E-1,-1.9122008E-2,-4.062945E-1,-6.7523026E-5],"categories":[],"categories_nodes":[],"categories_segments":[],"categories_sizes":[],"default_left":[0,0,0,0,0,0,0,0,0,0,0,0,0,0,0,0,0,0,0,0,0,0,0,0,0,0,0],"id":46,"left_children":[1,3,5,7,9,11,13,15,17,-1,19,21,-1,23,25,-1,-1,-1,-1,-1,-1,-1,-1,-1,-1,-1,-1],"loss_changes":[1.1328717E0,2.8159294E0,1.7733725E0,4.621745E0,7.8131485E0,4.5747705E0,1.930364E0,2.5131335E0,3.2160003E0,0E0,1.4544193E0,5.4740577E0,0E0,2.7388813E0,7.1067247E0,0E0,0E0,0E0,0E0,0E0,0E0,0E0,0E0,0E0,0E0,0E0,0E0],"parents":[2147483647,0,0,1,1,2,2,3,3,4,4,5,5,6,6,7,7,8,8,10,10,11,11,13,13,14,14],"right_children":[2,4,6,8,10,12,14,16,18,-1,20,22,-1,24,26,-1,-1,-1,-1,-1,-1,-1,-1,-1,-1,-1,-1],"split_conditions":[-2.3749893E2,3.248731E1,2.4083326E1,1.2517485E-2,4.137931E1,-1.1147281E2,2.6082249E1,2.6082249E1,2.5134187E0,-4.7602117E-1,3.051015E1,1.4942529E1,2.249924E-1,1.6825613E1,2.701323E1,2.454778E-2,2.602085E-1,-2.57749E-1,9.3908556E-2,-6.6601895E-2,2.9891938E-1,6.530323E-2,-3.3994246E-1,2.714975E-1,-1.9122008E-2,-4.062945E-1,-6.7523026E-5],"split_indices":[3,4,1,0,4,3,1,1,5,0,1,4,0,4,1,0,0,0,0,0,0,0,0,0,0,0,0],"split_type":[0,0,0,0,0,0,0,0,0,0,0,0,0,0,0,0,0,0,0,0,0,0,0,0,0,0,0],"sum_hessian":[1.5564203E3,2.9929726E1,1.5264906E3,2.5131872E1,4.7978535E0,1.3295341E1,1.5131953E3,1.753399E1,7.597882E0,2.0482056E0,2.749648E0,1.1116216E1,2.1791248E0,1.043524E1,1.50276E3,6.4968147E0,1.1037176E1,3.7659056E0,3.8319762E0,1.0601153E0,1.6895328E0,4.486158E0,6.6300583E0,4.6426153E0,5.792624E0,2.885961E0,1.499874E3],"tree_param":{"num_deleted":"0","num_feature":"6","num_nodes":"27","size_leaf_vector":"1"}},{"base_weights":[1.0821349E-4,-2.1731665E-3,2.9752558E-1,1.9993227E-5,-3.51377E-1,-7.612477E-1,8.162842E-1,-2.0862281E-2,3.624287E-2,-3.2491672E-1,-1.4846629E-2,-3.537112E-1,1.1847953E-2,3.209758E-1,-2.6875118E-2,-1.8960707E-3,-1.2412504E-1,1.1759163E-1,4.241402E-3,-1.4059904E-1,1.4843415E-1],"categories":[],"categories_nodes":[],"categories_segments":[],"categories_sizes":[],"default_left":[0,0,0,0,0,0,0,0,0,0,0,0,0,0,0,0,0,0,0,0,0],"id":47,"left_children":[1,3,5,7,9,11,13,15,17,-1,19,-1,-1,-1,-1,-1,-1,-1,-1,-1,-1],"loss_changes":[1.0557543E0,1.1826206E0,7.1268816E0,1.1622533E0,2.3570037E0,1.522681E0,2.0331812E0,5.565934E0,4.412703E0,0E0,1.9931191E0,0E0,0E0,0E0,0E0,0E0,0E0,0E0,0E0,0E0,0E0],"parents":[2147483647,0,0,1,1,2,2,3,3,4,4,5,5,6,6,7,7,8,8,10,10],"right_children":[2,4,6,8,10,12,14,16,18,-1,20,-1,-1,-1,-1,-1,-1,-1,-1,-1,-1],"split_conditions":[7.819936E1,7.53577E1,6.620432E-1,9.5973223E-1,1.092932E0,1.540826E0,3.1484995E0,9.195875E-1,9.9204886E-1,-3.2491672E-1,1.8440747E2,-3.537112E-1,1.1847953E-2,3.209758E-1,-2.6875118E-2,-1.8960707E-3,-1.2412504E-1,1.1759163E-1,4.241402E-3,-1.4059904E-1,1.4843415E-1],"split_indices":[1,1,2,5,0,0,0,5,5,0,3,0,0,0,0,0,0,0,0,0,0],"split_type":[0,0,0,0,0,0,0,0,0,0,0,0,0,0,0,0,0,0,0,0,0],"sum_hessian":[1.5540088E3,1.5431644E3,1.08443575E1,1.5345269E3,8.637588E0,3.412365E0,7.4319925E0,9.736484E2,5.608785E2,2.0223432E0,6.615244E0,1.931937E0,1.480428E0,5.664799E0,1.7671936E0,9.398766E2,3.377178E1,3.1834808E1,5.290437E2,3.5417438E0,3.0735004E0],"tree_param":{"num_deleted":"0","num_feature":"6","num_nodes":"21","size_leaf_vector":"1"}},{"base_weights":[5.5085795E-5,-9.069239E-3,6.766688E-2,-4.1622002E-4,-2.1552373E-1,2.9125848E-1,-6.8630174E-2,-9.540734E-3,2.5517878E-1,-5.3417945E-1,-6.705056E-3,3.5756722E-1,-7.651671E-1,-1.1867539E0,-3.0803606E-2,1.4511998E-3,-6.2625624E-2,-7.427307E-2,1.2053082E-1,4.3929644E-2,-4.1392067E-1,1.4446948E-1,-6.98397E-2,1.386146E-1,-1.149363E-1,-3.8149086E-1,1.4016236E-1,-4.7075126E-1,-2.959442E-2,-4.8351374E-2,6.1873853E-2],"categories":[],"categories_nodes":[],"categories_segments":[],"categories_sizes":[],"default_left":[0,0,0,0,0,0,0,0,0,0,0,0,0,0,0,0,0,0,0,0,0,0,0,0,0,0,0,0,0,0,0],"id":48,"left_children":[1,3,5,7,9,11,13,15,17,19,21,23,25,27,29,-1,-1,-1,-1,-1,-1,-1,-1,-1,-1,-1,-1,-1,-1,-1,-1],"loss_changes":[9.591845E-1,2.4472558E0,5.654051E0,3.0712094E0,3.663252E0,5.191603E0,4.8556314E0,3.6427858E0,3.4447658E0,1.2749522E1,3.899008E0,5.3420534E0,3.3809266E0,1.409123E0,3.522581E0,0E0,0E0,0E0,0E0,0E0,0E0,0E0,0E0,0E0,0E0,0E0,0E0,0E0,0E0,0E0,0E0],"parents":[2147483647,0,0,1,1,2,2,3,3,4,4,5,5,6,6,7,7,8,8,9,9,10,10,11,11,12,12,13,13,14,14],"right_children":[2,4,6,8,10,12,14,16,18,20,22,24,26,28,30,-1,-1,-1,-1,-1,-1,-1,-1,-1,-1,-1,-1,-1,-1,-1,-1],"split_conditions":[6.3843258E1,6.1808598E1,2.319818E-1,6.0494553E1,7.668998E1,2.8100197E0,2.4297315E-1,5.8459923E1,7.2469635E1,6.7186485E1,1.5245195E-1,2.0244682E0,8.6842785E0,1.5992828E2,1.5957017E0,1.4511998E-3,-6.2625624E-2,-7.427307E-2,1.2053082E-1,4.3929644E-2,-4.1392067E-1,1.4446948E-1,-6.98397E-2,1.386146E-1,-1.149363E-1,-3.8149086E-1,1.4016236E-1,-4.7075126E-1,-2.959442E-2,-4.8351374E-2,6.1873853E-2],"split_indices":[1,1,2,1,4,0,2,1,4,4,2,5,0,3,5,0,0,0,0,0,0,0,0,0,0,0,0,0,0,0,0],"split_type":[0,0,0,0,0,0,0,0,0,0,0,0,0,0,0,0,0,0,0,0,0,0,0,0,0,0,0,0,0,0,0],"sum_hessian":[1.5528213E3,1.3689456E3,1.8387564E2,1.3148395E3,5.410616E1,6.920681E1,1.1466882E2,1.2704482E3,4.4391193E1,2.0802935E1,3.3303223E1,6.574191E1,3.464896E0,2.758424E0,1.119104E2,1.1858363E3,8.461194E1,9.865839E0,3.4525356E1,1.1983724E1,8.819212E0,1.0182746E1,2.3120476E1,5.794446E1,7.797453E0,2.433105E0,1.0317911E0,1.7139428E0,1.0444813E0,7.240869E1,3.950171E1],"tree_param":{"num_deleted":"0","num_feature":"6","num_nodes":"31","size_leaf_vector":"1"}},{"base_weights":[-2.4623223E-4,-1.5590703E-2,4.035755E-2,-4.1230484E-3,-3.056754E-1,-2.5258815E-1,7.540919E-2,-1.1059831E-2,3.3810076E-1,-1.4310588E0,-1.4160623E-1,4.0271088E-1,-5.2328247E-1,2.3686741E-1,-1.2337223E-2,3.4618236E-3,-6.89939E-2,-3.5215625E-1,2.069773E-1,-5.6720996E-1,-1.5358976E-1,1.9791746E-1,-1.129748E-1,1.6764428E-1,-2.2996186E-1,-2.6806816E-1,1.9041821E-1,3.4466304E-3,1.9295315E-1,-3.9168543E-1,1.5647149E-2],"categories":[],"categories_nodes":[],"categories_segments":[],"categories_sizes":[],"default_left":[0,0,0,0,0,0,0,0,0,0,0,0,0,0,0,0,0,0,0,0,0,0,0,0,0,0,0,0,0,0,0],"id":49,"left_children":[1,3,5,7,9,11,13,15,17,19,21,23,25,27,29,-1,-1,-1,-1,-1,-1,-1,-1,-1,-1,-1,-1,-1,-1,-1,-1],"loss_changes":[9.6602273E-1,3.7419465E0,4.3855276E0,2.575801E0,7.69586E0,8.312587E0,5.3945775E0,5.261287E0,1.2276831E1,1.2850466E0,7.48731E0,2.9685044E0,1.461282E1,1.2268024E1,2.071345E1,0E0,0E0,0E0,0E0,0E0,0E0,0E0,0E0,0E0,0E0,0E0,0E0,0E0,0E0,0E0,0E0],"parents":[2147483647,0,0,1,1,2,2,3,3,4,4,5,5,6,6,7,7,8,8,9,9,10,10,11,11,12,12,13,13,14,14],"right_children":[2,4,6,8,10,12,14,16,18,20,22,24,26,28,30,-1,-1,-1,-1,-1,-1,-1,-1,-1,-1,-1,-1,-1,-1,-1,-1],"split_conditions":[1.8464252E-1,1.5899394E-1,6.0618557E1,1.5861365E2,1.6282758E-1,4.0556244E1,5.559009E1,7.5E1,7.875318E1,-3.249883E-1,4.6879368E1,2.8693445E1,1.2795669E0,-1.0823106E0,5.6690063E1,3.4618236E-3,-6.89939E-2,-3.5215625E-1,2.069773E-1,-5.6720996E-1,-1.5358976E-1,1.9791746E-1,-1.129748E-1,1.6764428E-1,-2.2996186E-1,-2.6806816E-1,1.9041821E-1,3.4466304E-3,1.9295315E-1,-3.9168543E-1,1.5647149E-2],"split_indices":[2,2,4,3,2,1,1,4,4,0,1,3,0,0,1,0,0,0,0,0,0,0,0,0,0,0,0,0,0,0,0],"split_type":[0,0,0,0,0,0,0,0,0,0,0,0,0,0,0,0,0,0,0,0,0,0,0,0,0,0,0,0,0,0,0],"sum_hessian":[1.54848E3,1.1242382E3,4.2424188E2,1.0824604E3,4.1777714E1,4.467365E1,3.7956824E2,1.0619036E3,2.0556812E1,4.333191E0,3.7444523E1,1.2916818E1,3.175683E1,1.330498E2,2.4651843E2,9.633986E2,9.850499E1,3.4394326E0,1.711738E1,2.1838865E0,2.1493046E0,8.08045E0,2.936407E1,1.1856028E1,1.0607903E0,2.4235731E1,7.5211E0,8.624067E1,4.680914E1,1.079555E1,2.3572289E2],"tree_param":{"num_deleted":"0","num_feature":"6","num_nodes":"31","size_leaf_vector":"1"}},{"base_weights":[2.0973459E-4,-2.9970046E-2,2.4319561E-2,-2.3726618E-2,-8.320722E-1,3.9454296E-1,1.1654161E-2,-1.4220228E-2,-5.5839974E-1,-7.9774484E-2,-4.2959335E-1,-3.027809E-1,6.934926E-1,-4.7996208E-1,2.6813945E-2,-5.8141304E-3,2.368246E-1,4.1522082E-2,-3.4067392E-1,9.463476E-2,-1.5017352E-1,1.9960918E-1,-5.624816E-1,3.6518378E-3,2.8776154E-1,-2.7785012E-1,-2.4484543E-3,2.0463552E-1,5.1397216E-3],"categories":[],"categories_nodes":[],"categories_segments":[],"categories_sizes":[],"default_left":[0,0,0,0,0,0,0,0,0,0,0,0,0,0,0,0,0,0,0,0,0,0,0,0,0,0,0,0,0],"id":50,"left_children":[1,3,5,7,9,11,13,15,17,19,-1,21,23,25,27,-1,-1,-1,-1,-1,-1,-1,-1,-1,